// This file is generated. Do not edit.
// Generated on: 01.11.2022 10:32:28


#include "../../api/xcore_config.h"
#include "tensorflow/lite/c/builtin_op_data.h"
#include "tensorflow/lite/c/common.h"
#include "tensorflow/lite/micro/kernels/conv.h"
#include "tensorflow/lite/micro/kernels/fully_connected.h"
#include "tensorflow/lite/micro/kernels/micro_ops.h"
#include "tensorflow/lite/micro/kernels/reduce.h"
#include "tensorflow/lite/micro/kernels/softmax.h"
#include "tensorflow/lite/micro/micro_context.h"

#if defined __GNUC__
#define ALIGN(X) __attribute__((aligned(X)))
#elif defined _MSC_VER
#define ALIGN(X) __declspec(align(X))
#elif defined __TASKING__
#define ALIGN(X) __align(X)
#endif

namespace tflite {
namespace ops {
namespace micro {
namespace xcore {
extern TfLiteRegistration *Register_XC_conv2d_v2(void);
extern TfLiteRegistration *Register_XC_lookup(void);
} // namespace xcore
}  // namespace micro
}  // namespace ops
}  // namespace tflite

namespace {

constexpr int kTensorArenaSize = 1952;
uint8_t tensor_arena[kTensorArenaSize] ALIGN(8);
template <int SZ, class T> struct TfArray {
  int sz; T elem[SZ];
};
enum used_operators_e {
  OP_XC_conv2d_v2, OP_UNPACK, OP_ADD, OP_SPLIT, OP_XC_lookup, OP_MUL, OP_RESHAPE, OP_CONV_2D,  OP_LAST
};
struct TensorInfo_t { // subset of TfLiteTensor used for initialization from constant memory
  TfLiteType type;
  void* data;
  TfLiteIntArray* dims;
  size_t bytes;
  TfLiteQuantization quantization;
};
struct NodeInfo_t { // subset of TfLiteNode used for initialization from constant memory
  struct TfLiteIntArray* inputs;
  struct TfLiteIntArray* outputs;
  void* builtin_data;
  used_operators_e used_op_index;
  int custom_initial_data_size;
};

TfLiteContext ctx{};
TfLiteTensor tflTensors[40];
TfLiteEvalTensor evalTensors[40];
TfLiteRegistration registrations[OP_LAST];
TfLiteNode tflNodes[19];

const TfArray<2, int> tensor_dimension0 = { 2, { 1,64 } };
const TfArray<1, float> quant0_scale = { 1, { 0.0078429952263832092, } };
const TfArray<1, int> quant0_zero = { 1, { -1 } };
const TfLiteAffineQuantization quant0 = { (TfLiteFloatArray*)&quant0_scale, (TfLiteIntArray*)&quant0_zero, 0 };
const TfArray<4, int> tensor_dimension1 = { 4, { 1,1,4,24 } };
const TfArray<1, float> quant1_scale = { 1, { 0.11122749745845795, } };
const TfArray<1, int> quant1_zero = { 1, { 127 } };
const TfLiteAffineQuantization quant1 = { (TfLiteFloatArray*)&quant1_scale, (TfLiteIntArray*)&quant1_zero, 0 };
const TfArray<2, int> tensor_dimension2 = { 2, { 1,64 } };
const TfArray<1, float> quant2_scale = { 1, { 11.764588356018066, } };
const TfArray<1, int> quant2_zero = { 1, { 93 } };
const TfLiteAffineQuantization quant2 = { (TfLiteFloatArray*)&quant2_scale, (TfLiteIntArray*)&quant2_zero, 0 };
const int32_t tensor_data3[1] = { 1 };
const int tensor_dimension3 = 0; /* empty TfLiteIntArray */
const ALIGN(8) int8_t tensor_data4[256] = { 
    -113, -109, -105, -99, -91, -82, -72, -60, -47, -32, 
    -16, 0, 16, 32, 47, 60, 72, 82, 91, 99, 
    105, 109, 113, 117, 119, 121, 123, 124, 125, 125, 
    126, 126, 127, 127, 127, 127, 127, 127, 127, 127, 
    127, 127, 127, 127, 127, 127, 127, 127, 127, 127, 
    127, 127, 127, 127, 127, 127, 127, 127, 127, 127, 
    127, 127, 127, 127, 127, 127, 127, 127, 127, 127, 
    127, 127, 127, 127, 127, 127, 127, 127, 127, 127, 
    127, 127, 127, 127, 127, 127, 127, 127, 127, 127, 
    127, 127, 127, 127, 127, 127, 127, 127, 127, 127, 
    127, 127, 127, 127, 127, 127, 127, 127, 127, 127, 
    127, 127, 127, 127, 127, 127, 127, 127, 127, 127, 
    127, 127, 127, 127, 127, 127, 127, 127, -128, -128, 
    -128, -128, -128, -128, -128, -128, -128, -128, -128, -128, 
    -128, -128, -128, -128, -128, -128, -128, -128, -128, -128, 
    -128, -128, -128, -128, -128, -128, -128, -128, -128, -128, 
    -128, -128, -128, -128, -128, -128, -128, -128, -128, -128, 
    -128, -128, -128, -128, -128, -128, -128, -128, -128, -128, 
    -128, -128, -128, -128, -128, -128, -128, -128, -128, -128, 
    -128, -128, -128, -128, -128, -128, -128, -128, -128, -128, 
    -128, -128, -128, -128, -128, -128, -128, -128, -128, -128, 
    -128, -128, -128, -128, -128, -128, -128, -128, -128, -128, 
    -128, -128, -128, -128, -128, -128, -128, -128, -128, -128, 
    -128, -128, -128, -128, -128, -128, -128, -128, -128, -128, 
    -128, -128, -128, -127, -127, -127, -127, -126, -126, -125, 
    -125, -124, -123, -121, -119, -117, 
};
const TfArray<1, int> tensor_dimension4 = { 1, { 256 } };
const ALIGN(8) int8_t tensor_data5[256] = { 
    -127, -126, -125, -124, -121, -117, -109, -99, -82, -60, 
    -32, 0, 32, 60, 82, 99, 109, 117, 121, 124, 
    125, 126, 127, 127, 127, 127, 127, 127, 127, 127, 
    127, 127, 127, 127, 127, 127, 127, 127, 127, 127, 
    127, 127, 127, 127, 127, 127, 127, 127, 127, 127, 
    127, 127, 127, 127, 127, 127, 127, 127, 127, 127, 
    127, 127, 127, 127, 127, 127, 127, 127, 127, 127, 
    127, 127, 127, 127, 127, 127, 127, 127, 127, 127, 
    127, 127, 127, 127, 127, 127, 127, 127, 127, 127, 
    127, 127, 127, 127, 127, 127, 127, 127, 127, 127, 
    127, 127, 127, 127, 127, 127, 127, 127, 127, 127, 
    127, 127, 127, 127, 127, 127, 127, 127, 127, 127, 
    127, 127, 127, 127, 127, 127, 127, 127, -128, -128, 
    -128, -128, -128, -128, -128, -128, -128, -128, -128, -128, 
    -128, -128, -128, -128, -128, -128, -128, -128, -128, -128, 
    -128, -128, -128, -128, -128, -128, -128, -128, -128, -128, 
    -128, -128, -128, -128, -128, -128, -128, -128, -128, -128, 
    -128, -128, -128, -128, -128, -128, -128, -128, -128, -128, 
    -128, -128, -128, -128, -128, -128, -128, -128, -128, -128, 
    -128, -128, -128, -128, -128, -128, -128, -128, -128, -128, 
    -128, -128, -128, -128, -128, -128, -128, -128, -128, -128, 
    -128, -128, -128, -128, -128, -128, -128, -128, -128, -128, 
    -128, -128, -128, -128, -128, -128, -128, -128, -128, -128, 
    -128, -128, -128, -128, -128, -128, -128, -128, -128, -128, 
    -128, -128, -128, -128, -128, -128, -128, -128, -128, -128, 
    -128, -128, -128, -128, -128, -127, 
};
const TfArray<1, int> tensor_dimension5 = { 1, { 256 } };
const ALIGN(8) int8_t tensor_data6[256] = { 
    -128, -128, -128, -128, -128, -128, -128, -128, -128, -128, 
    -128, -128, -128, -128, -128, -128, -128, -128, -128, -128, 
    -128, -128, -128, -128, -128, -128, -128, -128, -128, -128, 
    -128, -128, -128, -128, -128, -128, -128, -128, -128, -128, 
    -128, -128, -128, -128, -128, -128, -128, -128, -128, -128, 
    -128, -128, -128, -128, -128, -128, -128, -128, -128, -128, 
    -128, -128, -128, -128, -128, -128, -128, -128, -128, -128, 
    -128, -128, -128, -128, -128, -128, -128, -128, -128, -128, 
    -128, -128, -128, -128, -128, -128, -128, -128, -128, -128, 
    -128, -128, -128, 0, 127, 127, 127, 127, 127, 127, 
    127, 127, 127, 127, 127, 127, 127, 127, 127, 127, 
    127, 127, 127, 127, 127, 127, 127, 127, 127, 127, 
    127, 127, 127, 127, 127, 127, 127, 127, -128, -128, 
    -128, -128, -128, -128, -128, -128, -128, -128, -128, -128, 
    -128, -128, -128, -128, -128, -128, -128, -128, -128, -128, 
    -128, -128, -128, -128, -128, -128, -128, -128, -128, -128, 
    -128, -128, -128, -128, -128, -128, -128, -128, -128, -128, 
    -128, -128, -128, -128, -128, -128, -128, -128, -128, -128, 
    -128, -128, -128, -128, -128, -128, -128, -128, -128, -128, 
    -128, -128, -128, -128, -128, -128, -128, -128, -128, -128, 
    -128, -128, -128, -128, -128, -128, -128, -128, -128, -128, 
    -128, -128, -128, -128, -128, -128, -128, -128, -128, -128, 
    -128, -128, -128, -128, -128, -128, -128, -128, -128, -128, 
    -128, -128, -128, -128, -128, -128, -128, -128, -128, -128, 
    -128, -128, -128, -128, -128, -128, -128, -128, -128, -128, 
    -128, -128, -128, -128, -128, -128, 
};
const TfArray<1, int> tensor_dimension6 = { 1, { 256 } };
const ALIGN(8) int8_t tensor_data7[3072] = { 
    -32, 27, 85, -57, 33, 26, -39, 27, 38, -47, 
    -35, -25, -64, -86, 14, 64, 3, -56, -80, 19, 
    -40, -54, 44, 31, -21, 59, 25, -12, 45, 86, 
    65, -31, 31, 60, 40, -12, -28, -23, 14, -66, 
    21, -60, 61, 74, -23, -28, 35, 45, -10, 44, 
    -32, -53, -75, -7, 4, 7, -40, -7, 11, -31, 
    -31, 58, 5, -39, -75, -27, -48, -86, 77, 76, 
    -19, -8, -43, -77, -19, 54, 0, -85, -40, 15, 
    22, 50, 5, -34, 30, 55, 15, 20, 11, -35, 
    69, 45, 85, 23, -53, -26, 28, -56, -45, -69, 
    -24, -89, 3, -48, -9, 44, 55, 12, 69, 34, 
    -28, -25, -51, -35, -32, -50, 11, 1, -50, -1, 
    24, 21, -46, -63, -82, -94, -79, -37, 6, -65, 
    -26, -41, 7, 100, 1, -2, 5, -10, -19, -60, 
    -7, -36, -62, 29, -53, 14, -56, 25, -1, -49, 
    10, -22, -79, 59, 100, -35, 91, 101, 91, 64, 
    81, -47, 0, 41, -81, -19, -76, -7, -36, 34, 
    38, -49, -52, -33, 17, -82, -71, 26, -31, -7, 
    -10, 50, -13, 10, -49, -41, 15, -40, -65, 36, 
    -71, 36, 48, 6, -55, -127, -34, -12, 54, -53, 
    -62, -66, -78, 31, 71, 35, 15, -24, -61, 48, 
    19, -42, 1, 55, 58, 62, -21, -50, -85, -123, 
    -55, 49, -52, -76, 89, -62, 26, -29, -72, 16, 
    -69, 45, 29, 4, 8, 45, 43, -68, 22, -57, 
    30, -46, 68, 31, 49, 65, 33, -34, 65, -37, 
    -29, -47, 73, 8, 11, -76, 11, -28, 25, 43, 
    36, -41, 27, -77, -87, -83, 18, -30, -16, 47, 
    -64, 68, 75, -38, 82, -65, -17, -36, 52, -38, 
    -27, 39, -20, 43, 8, 78, -16, -6, -97, 24, 
    47, -25, -49, 1, -80, 40, -46, -45, 6, -22, 
    5, -11, 73, 74, 15, 47, 11, -50, -53, 69, 
    35, -30, -41, 40, 108, 81, 26, -9, -35, -79, 
    46, 49, -89, 8, 30, -34, -11, 70, 42, 25, 
    28, -42, -45, -72, -78, -47, 21, 55, -26, 13, 
    -54, -49, -32, -67, 59, 2, -101, -9, -52, -33, 
    -70, -30, 24, -11, 3, -84, -71, -29, -36, 55, 
    50, 37, -34, 66, 15, -75, -19, 79, 27, -56, 
    4, -23, 50, 59, -50, 83, 7, 55, 52, -87, 
    -81, 36, -52, 40, -70, 58, -14, 36, 12, -10, 
    -99, -10, -88, 16, -2, -68, -60, 42, -8, 39, 
    34, 3, 32, 51, 36, 35, -59, -68, -59, -39, 
    71, 47, -13, 45, -95, -57, -88, 34, -28, -12, 
    37, -5, -3, -3, -47, 28, -72, 46, -12, 30, 
    80, 45, -60, -21, 2, 44, -45, 50, 4, 70, 
    9, -16, 35, 64, 62, 35, -85, -35, 50, -51, 
    7, -36, 29, 37, -97, 31, -71, -79, -98, -40, 
    -8, 14, 73, 1, 4, 65, -54, -23, -20, 66, 
    74, 46, -77, -34, -45, 78, -4, 37, -11, 26, 
    -6, 30, 30, -49, -35, 30, 52, 32, -59, -68, 
    23, -50, 77, 97, -23, 16, -55, 63, -20, -44, 
    -70, 4, 49, 33, -54, 74, 66, 55, -2, -40, 
    -38, 20, 20, -51, -53, 30, -52, -70, -63, 77, 
    -23, 1, -48, -28, -48, 33, -61, 66, 32, 70, 
    -14, 76, 16, -17, 10, -67, -75, 18, 28, 26, 
    -10, 18, 12, 83, -15, -78, 31, 47, 83, -54, 
    -55, -16, -74, -36, 29, 47, 58, -43, -59, 3, 
    -78, 21, 39, -7, 8, -24, -4, -29, 42, 45, 
    12, -7, -55, 48, 52, -57, 42, -39, -67, 8, 
    -60, -2, 71, 105, 52, -40, 42, -41, -69, -69, 
    -63, 57, -8, -12, -36, 23, 50, 84, -16, 50, 
    24, 31, -59, -26, 63, 46, 16, 77, -13, -12, 
    58, -3, 57, 43, -12, -76, 72, -21, 79, -64, 
    2, 37, 13, -29, 43, 43, -62, 50, -56, 3, 
    -69, -65, -30, -36, 40, -27, -31, 50, -29, -32, 
    66, -12, 45, 74, 37, -78, -71, -59, -12, 9, 
    60, 11, -54, 21, 40, -50, -60, -23, 98, 71, 
    38, 77, 45, -42, 42, 53, 27, 10, -69, -91, 
    -55, -59, -20, -30, 64, -63, 64, 74, -37, -72, 
    21, -78, 38, 57, -63, 39, 50, -41, 40, -87, 
    -15, 34, -52, 26, -2, -64, 62, -20, 35, 64, 
    55, -57, 44, 14, 50, -59, 17, 78, 43, 56, 
    24, 0, 13, 19, -71, -11, -66, -49, -20, -64, 
    14, 84, -79, -22, 5, -9, 27, 64, 28, 27, 
    46, 34, 65, 15, -27, 57, 36, -38, -88, 0, 
    56, -48, 11, 33, 43, 44, 55, -22, -66, -41, 
    -34, 47, 46, 8, -70, 32, 1, -72, -87, 8, 
    -84, -80, -2, -11, 24, 35, 40, -72, -22, -88, 
    -8, -3, -26, 10, -35, -29, -35, 53, 1, 51, 
    73, 45, -5, -15, -24, -36, 71, -48, 0, 52, 
    -42, 27, -20, -42, -48, -46, -52, -17, 77, 19, 
    -46, 61, 59, 44, 31, 50, -46, -54, 66, 56, 
    32, -32, -18, -66, -24, 29, -109, 9, 81, 105, 
    17, 36, 1, 17, -13, -11, -5, -40, 71, 60, 
    33, 58, -45, 3, -20, -17, -49, 5, 56, 30, 
    19, 68, 22, 4, -65, -70, 39, 15, 43, 38, 
    -41, 23, 75, 62, 75, -56, -4, -62, -34, 36, 
    48, -29, 60, 58, 31, -49, 16, -24, -60, 8, 
    41, -38, 35, -30, -46, -15, -36, -58, 67, 5, 
    46, -48, 32, -53, -55, -51, 27, -53, 79, 51, 
    34, -36, 35, -64, 46, -24, -50, 41, -28, 3, 
    60, -61, 42, -61, -68, 53, 41, 57, -15, -72, 
    -70, -31, -2, 66, 62, 16, 5, -50, -20, -58, 
    -8, -2, -8, 39, -30, 55, -17, 47, 54, -65, 
    50, 65, 77, 67, -29, 77, 69, -29, 44, -62, 
    67, -34, -33, -25, -94, 12, 84, -11, 87, -9, 
    -55, 12, -32, -71, -72, 74, 22, -6, -42, 34, 
    10, 33, -82, 17, -51, 37, 47, 22, -34, -26, 
    -42, 5, -30, 51, 61, 36, 51, 64, -25, 74, 
    4, 50, -39, 41, -29, 64, -94, -51, -57, -1, 
    -21, 44, -40, -56, 34, -35, 72, -40, -21, -34, 
    51, -59, 8, -12, -63, 13, 7, -65, -77, 25, 
    11, -60, 14, 54, 62, -33, 17, 47, -34, 11, 
    38, -42, 20, -31, -1, -44, 60, -69, 50, 55, 
    -9, -22, 4, 65, 12, 49, -44, -9, 12, -10, 
    -82, -95, -28, 47, -50, -8, -16, 27, 53, -11, 
    65, 40, 69, 46, 20, 59, 60, 7, 59, 25, 
    -63, 32, 41, -53, -58, 74, -59, -16, 85, 29, 
    -71, -6, -91, -28, -71, 42, 47, -65, 46, 54, 
    -33, -58, -51, -61, 26, 1, -45, -5, 64, -51, 
    40, -29, -10, 39, -59, -15, 38, -3, -18, -27, 
    18, 7, -65, 26, 31, -93, 30, 62, -37, -87, 
    -31, 20, 50, 72, -24, 11, -2, 59, -69, 14, 
    70, 19, -45, -56, -62, 60, 78, -53, -36, -44, 
    -69, 0, -61, -18, -48, -91, -52, 29, 52, -72, 
    -66, -32, 62, 66, 13, 76, -2, 75, 82, -15, 
    54, 25, 40, 26, -54, 21, -46, 69, -34, -20, 
    22, 15, 68, 89, -27, -21, 32, 39, 7, 49, 
    -60, -56, -44, -15, 1, 40, -22, -19, 29, 46, 
    71, 29, 25, 37, -33, 0, 1, -45, -64, 47, 
    53, -38, 9, 46, -67, 49, -19, 12, 44, 3, 
    -38, 29, 22, -22, 12, 76, 78, 22, -14, -21, 
    -71, 47, -15, 25, 19, 16, -23, 26, 34, 19, 
    -23, -88, -5, -74, 82, -45, -27, -95, -55, 41, 
    61, -11, -57, -50, -68, 12, 86, -67, -48, 30, 
    -70, -57, 52, 39, -75, 44, 16, -69, -17, 24, 
    54, 4, 5, 42, 14, 54, 12, 55, -49, 42, 
    47, -69, 31, -14, -75, -36, 37, 18, -8, 9, 
    -4, 35, 9, -1, 48, -35, 33, -13, -54, -75, 
    61, -33, 13, -26, 45, 52, -23, 48, 43, 44, 
    51, 53, 41, -2, 58, 18, -51, 24, 8, 64, 
    -45, 69, -68, -2, -26, 13, -8, -22, -23, -16, 
    37, -9, 7, -32, 20, -57, 22, 3, -38, 30, 
    -75, -8, 8, 36, 77, 56, -13, 45, 19, 2, 
    -12, -72, -66, 83, 43, -67, 50, 13, -14, 20, 
    58, 53, 25, -53, 21, 45, -69, 65, -55, 47, 
    -32, -62, 95, 71, -100, -18, 10, 30, -30, 33, 
    54, 38, 79, 64, -58, -72, -73, -3, 51, 72, 
    -42, -55, 53, -68, -10, -7, -30, -78, -8, -33, 
    -33, -27, 71, 48, 54, -50, 31, 29, 44, 18, 
    74, -44, -55, -35, 9, -58, 28, -4, 59, 57, 
    -16, -57, 40, -28, -55, 69, -56, -29, 61, 22, 
    -61, -44, -38, -14, 32, -50, -46, -24, -10, 67, 
    -29, 13, -41, 20, 0, -52, -74, -2, 23, -75, 
    38, -63, 3, 0, 2, 65, -65, 3, 19, 6, 
    -1, -13, 48, -30, -74, 63, -56, -64, -96, 70, 
    21, 41, 62, 55, -27, 13, 24, 28, -64, 29, 
    -34, -72, 62, 0, 54, -39, 4, -25, 14, 19, 
    42, -32, -35, -77, -8, 50, -13, 38, -74, 41, 
    -12, -55, 53, 110, 7, 1, 13, 0, -61, 29, 
    0, 22, 71, 84, 73, -37, 33, -85, -33, -42, 
    -1, 48, -3, -33, 5, -82, -34, 67, -63, 55, 
    35, 40, -77, 56, -48, 56, 3, -39, -4, -11, 
    -63, 75, 45, 17, 85, 98, -45, 33, -45, 26, 
    -50, -34, 25, 28, 58, -31, 27, -32, -27, 18, 
    -50, -48, 13, -15, 37, -37, 46, -83, -4, 3, 
    -4, -4, -18, -24, -38, 3, 82, -55, -38, 49, 
    -29, 29, 10, -17, 55, -48, -70, -41, 83, 25, 
    30, 1, 72, 17, 21, 56, -29, 55, 76, -7, 
    -45, 77, -55, 90, 81, -29, -59, 18, 28, -73, 
    52, 45, -4, -40, -54, 52, -12, 60, 13, 88, 
    -52, -56, -9, 49, 77, 5, -31, -30, -35, -86, 
    -66, -34, -2, 85, -26, 42, -49, 22, -1, -49, 
    45, -67, -44, -53, 55, 56, 52, 66, -17, 18, 
    -62, -38, 50, -21, 31, -62, 91, 18, 28, -72, 
    -81, -38, -72, -70, 40, 29, 76, 45, -29, -25, 
    -60, 65, 62, -52, -22, 3, -22, -18, -21, -68, 
    -14, -22, 49, -7, 17, 26, 11, -45, 51, -38, 
    41, 53, -34, -19, -72, 29, 78, 54, 83, -15, 
    -46, 19, -39, -2, -53, 58, 3, 21, 47, -44, 
    -78, 27, -1, -27, 31, -25, 22, -15, 26, 87, 
    53, 13, 40, 6, 20, -65, 64, -17, -36, -78, 
    9, 17, -52, 14, -5, -13, -20, 55, 49, -6, 
    -32, 35, 59, 8, -16, 48, -74, -88, -81, 7, 
    -5, 70, -42, -44, -47, 27, -52, -74, -75, -51, 
    25, -32, 7, -69, -11, 8, -53, -48, 57, -40, 
    21, 31, -34, -67, 34, 8, 7, 42, 78, -51, 
    87, 27, -16, -54, -1, 63, -20, -2, 15, 54, 
    -40, -65, 38, 75, 57, 44, -79, 54, 54, 13, 
    -61, 4, -24, 22, 105, 59, 14, -58, -77, 35, 
    49, 2, 56, 69, -9, 42, 72, 7, -6, -50, 
    21, 41, -21, -4, -29, -92, 39, -21, -31, 61, 
    -44, 39, -51, 29, 15, 57, -64, 29, -8, 13, 
    1, 57, 42, -37, -5, -36, 48, 11, -36, -27, 
    36, 33, -41, 59, 57, -10, 50, 25, 58, 34, 
    31, -60, 16, 71, -44, 49, -29, -50, -23, 38, 
    84, -9, -71, 1, 4, -52, -17, 9, 9, -27, 
    23, 23, 74, 41, 50, 14, 65, -62, 57, -7, 
    47, -68, -65, 32, -23, -16, -58, 2, 77, 42, 
    -57, -39, 107, 91, -21, -70, -25, -54, -17, -29, 
    43, 33, 126, 43, -20, 2, 13, 56, 5, 6, 
    -70, -50, 30, 65, -43, 15, 22, -79, -48, -23, 
    -23, 75, -10, 3, 30, -54, 65, 105, 3, 32, 
    14, -13, 41, 34, 66, 100, 15, 61, -50, -64, 
    52, 3, 75, -18, 79, 21, 28, -20, 4, 8, 
    -56, -26, 17, -68, -71, 20, -1, 31, 51, 76, 
    51, 23, -62, 54, 83, 59, 34, 14, 60, 86, 
    30, -66, 37, 95, 52, 8, 13, 7, 21, 11, 
    29, -34, -78, -28, 64, -6, 14, 22, 78, 27, 
    23, 51, 86, -71, 12, 54, -60, -21, 10, 58, 
    46, -80, -29, -6, 52, -34, 48, 14, -21, -12, 
    -58, -35, 48, 8, 69, 22, 33, -8, 31, -38, 
    -2, 46, -44, -77, 7, -42, -75, 62, 41, -47, 
    -36, -76, -63, 41, -37, 46, 43, -85, -18, 41, 
    69, -45, 37, 18, -25, -54, 5, 9, -48, 81, 
    14, 23, 20, 56, -89, 51, 63, -23, 90, 60, 
    -13, -32, -59, -2, 3, 36, -3, 21, 60, -44, 
    -27, 50, 48, -31, -44, -15, -66, -81, -1, 1, 
    72, -15, -10, 93, 24, -36, -41, -47, 21, 13, 
    -48, 46, -2, -29, 70, -32, 9, -13, 12, -37, 
    -59, -62, -47, -51, -44, -60, 0, 34, -60, -25, 
    42, 52, 80, -25, 45, -39, 20, 9, 41, -57, 
    -13, 65, -20, 15, 41, -64, 3, -46, -43, 86, 
    77, 60, -55, -41, 39, -63, -33, 0, 48, 47, 
    74, 9, 47, -23, 29, -62, -70, 7, -29, -4, 
    90, 37, 61, -35, -9, -62, -31, -27, -50, -53, 
    59, 1, 91, -20, 19, -26, 15, -22, -41, 49, 
    -29, 15, -48, 59, -37, -37, 13, -55, -6, -19, 
    -69, -72, 78, -1, 46, 82, 57, -27, -57, -19, 
    41, 80, 69, -21, 34, -50, -65, -27, 18, 10, 
    9, -39, 74, 35, -63, -56, -58, 53, -6, -58, 
    63, -74, -14, 36, -3, 56, -30, -17, 36, -6, 
    -7, -58, -39, 11, 49, 1, 80, -12, 19, 24, 
    -68, 59, -31, 1, -41, 40, 39, -73, -34, -17, 
    -18, 13, -84, -52, -87, -96, -60, -83, 2, 95, 
    -66, -5, -17, 15, 76, 75, -1, -8, 9, 69, 
    44, 3, 15, 65, -69, 28, -91, 24, 47, 71, 
    -20, -31, 47, 76, -21, -21, 10, -10, 74, 10, 
    55, -56, -55, 1, 70, -28, 58, -24, -14, -1, 
    -64, -46, 23, -57, -63, 36, 26, -21, 81, 35, 
    -78, -3, -84, 44, -2, 42, -49, -25, 47, 79, 
    83, 16, 68, -23, -24, -78, 45, 47, 1, -72, 
    -17, 92, -36, 84, 83, -48, -2, -33, 51, 19, 
    -31, 72, 33, 43, 99, 36, -52, -62, 8, -8, 
    -1, 38, -64, -54, -18, 76, 51, -25, -12, -6, 
    54, -4, -31, -1, 9, -83, 68, -25, -10, 63, 
    11, -47, 22, 37, 52, 96, -81, -9, -65, -48, 
    29, -64, -46, 34, -58, 14, -77, -86, 47, 19, 
    15, 59, 13, 80, -63, 23, -72, 61, -41, -2, 
    -76, -17, 18, 65, -54, -27, -24, -23, 15, 26, 
    4, 20, -17, 72, 72, -47, -25, -41, 58, -59, 
    -85, 44, 20, 42, 32, -33, -35, 15, -7, -29, 
    8, 57, -74, -56, 13, -19, -64, -17, 20, 12, 
    24, 25, 49, -80, -91, -47, 41, 82, -55, 48, 
    5, -18, 44, 26, -44, 21, 74, -1, 77, 46, 
    -51, -29, 5, -4, -15, 9, -50, 23, -53, 13, 
    34, -66, 5, 24, -37, -81, 44, -34, -74, 74, 
    66, -41, 4, 83, 24, -35, 58, 19, 73, -8, 
    0, 43, -55, 46, -30, 42, -9, 4, 43, -68, 
    -96, -41, -28, -38, 46, 49, 30, -48, -64, 55, 
    82, 62, 30, 24, 18, 78, -30, 73, 73, 32, 
    52, 36, -79, -76, 18, -34, -18, -33, 42, -48, 
    24, -67, -8, -33, -68, 0, -48, 20, -38, -43, 
    -18, 20, 39, 39, -20, 14, -2, -24, 72, -30, 
    -35, -34, -79, 34, 33, -31, 40, 16, -49, 31, 
    -47, -4, 49, -34, -22, -21, 79, -30, -87, -6, 
    100, 80, 23, 46, 56, -4, -80, -69, 8, 5, 
    31, -19, 68, -35, -57, -51, 18, 67, 56, -62, 
    -82, -29, -10, -50, 47, 68, 74, 20, -33, 29, 
    18, 54, -59, -70, 29, -68, -53, -1, -69, 77, 
    -23, 55, -21, -63, -12, -41, 60, 77, -54, -38, 
    -6, -28, -53, -25, 32, 7, 60, 9, 46, 45, 
    -70, -69, -26, -54, -45, 22, 54, 37, -1, 21, 
    61, -50, -58, 11, 5, -58, 43, 40, -27, 75, 
    29, -23, 66, 61, 41, 87, 65, -13, 54, 63, 
    -68, 19, -80, 79, 76, 23, 99, -10, 62, -49, 
    -1, -23, 45, -35, -56, -57, 12, 31, -7, 51, 
    -72, 23, 74, -65, 32, 30, 64, -15, 7, 100, 
    60, 9, 48, -82, -63, -74, 64, -50, -8, 75, 
    -59, 62, 70, -45, -1, -43, 3, 36, 50, -8, 
    -41, -61, 33, -2, 36, -34, 83, -74, -30, 9, 
    -15, -49, -80, -9, -42, -62, -12, -69, -59, 90, 
    27, -14, -77, -56, -22, 55, 65, -74, -46, 52, 
    -25, -19, 59, 4, -10, -25, 47, -3, 20, -38, 
    60, -76, -83, -20, -56, -65, 24, -7, -89, -60, 
    31, -4, 39, -2, 82, -14, 37, 44, 76, 51, 
    64, -61, -72, -41, -30, -71, 13, 24, 42, -65, 
    -94, -7, 110, 59, 87, -40, -38, -24, -8, -16, 
    60, 57, 77, 52, -43, -27, -50, -2, 51, 56, 
    -21, -22, 69, -42, -74, -1, -30, 29, 23, 57, 
    -53, 62, 20, -58, -71, -59, 13, -24, 17, 71, 
    -34, 29, -32, -56, 43, 31, -45, 40, -39, -54, 
    -1, -10, 26, -39, -4, 30, -47, 47, 47, -37, 
    24, 4, -12, 4, 36, -51, 0, -77, 118, 13, 
    30, -42, -94, 1, -58, 76, -74, -33, 64, -48, 
    27, -55, -19, -34, -15, 25, 30, -13, 42, -7, 
    38, -44, -44, -54, 27, 56, 73, -57, 56, 71, 
    -69, -56, 36, 48, -24, -10, 48, -76, 12, 73, 
    24, -4, 39, 60, -34, 51, 54, 35, -40, -21, 
    -13, -11, 60, -21, 28, 6, 19, 13, -60, 7, 
    77, 56, -6, -6, -69, 6, -39, 89, -25, 2, 
    21, 33, 61, -26, -44, -4, 45, 61, 36, 11, 
    -62, -20, 58, -31, -41, -20, -30, -28, 28, 28, 
    -21, -9, 33, -61, -22, 35, -90, -9, -50, 20, 
    -53, 48, -61, -80, 53, 41, -51, 1, 68, 64, 
    48, 45, 47, -36, 72, 10, 12, -69, 24, -57, 
    -45, 3, 0, 66, -33, -70, -26, -15, -49, -43, 
    33, 32, -38, 50, -42, 16, 45, 66, -17, -20, 
    28, -23, -20, -5, 62, -19, 17, 41, -35, -36, 
    12, 36, 49, -11, -110, 3, -30, 57, 94, -17, 
    -16, -80, -108, -96, -51, -3, -70, -28, -9, 6, 
    -25, -1, -45, -26, -72, -41, -8, 14, -46, 70, 
    49, 44, 51, 10, -62, 17, 0, 14, -79, -25, 
    -71, 4, -26, -87, -1, -1, 9, 17, -47, 48, 
    -52, -47, -62, 44, 73, -22, 8, 72, -13, -7, 
    13, 49, 52, -6, 2, -76, -50, 56, 18, -36, 
    13, -76, 44, -1, 65, 49, 52, 65, 76, 6, 
    -48, 35, -64, -14, 66, -40, -72, -62, 51, 19, 
    6, -13, 
};
const TfArray<1, int> tensor_dimension7 = { 1, { 3072 } };
const ALIGN(8) int16_t tensor_data8[64] = { 
    15035, 15035, 15035, 15035, 15035, 15035, 15035, 15035, 15035, 15035, 
    15035, 15035, 15035, 15035, 15035, 15035, -1978, -2295, -6236, 8789, 
    2676, 1385, -9907, -3275, 64, 9661, 3218, -7898, 11857, -3071, 
    5105, -3194, 15035, 15035, 15035, 15035, 15035, 15035, 15035, 15035, 
    15035, 15035, 15035, 15035, 15035, 15035, 15035, 15035, -3240, 4365, 
    -6813, -7875, -1395, -7160, -4532, -4736, -4190, -309, 3974, 4954, 
    1048, -7508, -4668, 4534, 
};
const TfArray<1, int> tensor_dimension8 = { 1, { 64 } };
const ALIGN(8) int8_t tensor_data9[8192] = { 
    -58, 35, -39, 31, -2, -5, -52, -48, -8, 12, 
    31, -1, -37, -31, 38, 1, 23, 15, 3, -31, 
    -21, 6, 39, 48, 47, -28, -21, 14, -46, 18, 
    52, -38, 13, -5, 23, -19, -45, -43, 42, 22, 
    28, -76, 27, 50, -21, 11, 15, 31, -9, 31, 
    -5, 36, -47, 52, -37, 6, 13, 12, 40, 38, 
    12, -32, 18, 5, 13, -48, -3, 22, -45, 17, 
    -15, 16, 3, -30, 48, -13, 24, 44, -3, -70, 
    36, 59, 21, 66, 3, 48, 28, -87, 33, 0, 
    -19, -50, -14, 40, 14, 9, 44, -26, 32, 24, 
    -26, -17, 0, 10, -20, 7, 7, 36, 35, 32, 
    42, 30, -2, 21, 31, 12, -3, -10, -47, -26, 
    -63, 23, 3, 0, -18, 25, 34, 17, 25, 11, 
    -34, -36, -28, -68, 12, 3, 17, 32, 43, 37, 
    56, -4, -22, -6, -51, 23, -37, 1, -17, 73, 
    -44, 50, -5, 6, -21, 11, -30, -74, 25, -34, 
    -1, -24, -25, -36, -36, 72, 32, 19, 38, 47, 
    15, -39, -31, 30, 12, 17, 35, -2, -53, -53, 
    -32, -34, -18, 51, 49, 52, -43, 50, 35, 58, 
    -53, -22, -33, -27, -23, 12, -2, 40, -72, 17, 
    12, 16, -15, -58, -10, 8, -17, 28, 50, 32, 
    -3, -60, -14, -20, 47, 36, 40, 17, -1, 1, 
    25, 24, 38, 0, -20, -4, 30, -34, -13, 5, 
    27, -25, 18, -23, -7, -23, 0, 18, -43, -32, 
    -44, 14, -17, 50, -61, -11, 8, 35, -3, -6, 
    -20, 38, -1, 51, -14, 9, 0, -53, -37, -20, 
    12, 9, 30, -45, 38, 23, 32, 0, 62, 26, 
    -3, 0, -31, -2, -2, 20, -46, 4, 19, -51, 
    53, -22, -18, -4, -3, -23, 5, 31, -9, -8, 
    47, 13, -50, -39, -50, 35, -10, -30, 15, -64, 
    56, 23, 7, -29, -12, -21, 6, -22, 9, -34, 
    14, -8, -13, -59, -59, 23, 30, -35, 37, -12, 
    23, 17, -52, -43, 38, -34, 8, 43, -20, 36, 
    21, -65, 37, -61, -33, 28, -46, 40, -41, -10, 
    -13, 19, 39, -17, 52, -6, 3, -25, 41, 23, 
    -84, 52, 22, 43, -4, -11, 16, -22, 61, -12, 
    12, 16, -32, -14, -17, 47, -49, 42, 102, -46, 
    8, -27, 15, -11, -47, -9, -38, 18, -20, -63, 
    32, 2, 17, 35, -52, -18, -12, 31, -32, -22, 
    -7, -60, 5, -41, -83, 28, -19, -16, -26, -28, 
    7, 69, 13, -4, 56, 13, -6, 52, 32, -24, 
    -54, 32, -43, -51, 57, -20, -41, -33, -50, 20, 
    13, 1, -12, -13, 7, -9, 44, -40, -34, 34, 
    7, 41, -13, -48, -3, 13, 33, 17, 2, 92, 
    -25, -44, -36, -2, 4, 39, -16, -48, 4, 22, 
    14, -32, -15, -38, -23, 17, -21, -35, -13, -32, 
    49, 5, -4, -35, 35, -21, 43, -51, 26, -9, 
    4, -16, -29, -40, 0, -24, 15, 34, 23, 29, 
    8, 22, 8, -27, 1, -24, 29, -18, -7, 9, 
    -3, 10, -10, 8, -62, 11, 36, 2, 12, 21, 
    -67, 51, 52, 35, -28, -27, -4, 19, -33, 20, 
    -33, -20, -11, -5, 29, -22, -16, -67, 46, 73, 
    18, 14, 45, -12, -25, -19, -54, -36, -66, 59, 
    -6, -20, -59, 73, 55, 6, 29, -30, 24, -20, 
    -15, 57, 0, 22, 3, 17, -2, 49, 26, 6, 
    21, 3, -37, 34, 47, -41, 46, 42, 53, 33, 
    -56, -38, 27, -6, 48, -16, 14, -7, -45, 34, 
    17, 50, -45, -13, -29, 24, -4, -3, -50, 8, 
    -4, 5, -39, -4, -60, 55, -29, -47, 10, 13, 
    -32, -1, -51, 11, -2, -45, 64, -13, -80, 13, 
    -3, -12, -35, 7, 32, -81, -22, 0, 4, -26, 
    14, -39, 11, -35, 11, 13, 0, -6, 21, 5, 
    -45, 9, 11, 54, -13, 16, -21, -41, 17, 51, 
    -14, -43, 45, -44, -25, 60, -57, -26, -28, 17, 
    -47, -23, -35, -28, -72, 7, 42, -22, -35, 23, 
    5, 2, 59, 1, -17, -33, -80, 32, 58, -17, 
    28, -9, 8, 60, 44, 11, 8, -29, 48, 62, 
    41, 25, -21, 28, -3, -66, 15, 62, 22, -45, 
    -19, 9, 35, 10, 64, 16, -31, -45, -67, 34, 
    -65, -46, 26, 1, -22, -27, 72, -53, -25, 22, 
    1, 24, 23, 33, -9, 2, 2, -25, 3, 56, 
    -56, -50, -16, 60, -23, -3, 17, 44, 60, 20, 
    15, 45, -49, 23, 37, -56, -43, -55, -41, 50, 
    -18, -42, 24, 41, -32, -26, -43, -35, -42, -8, 
    -26, -29, 40, 33, 30, -33, 55, -23, 4, -8, 
    14, 27, 22, 67, 20, 29, 35, 4, 4, 55, 
    -22, -5, 19, -57, -10, -66, -26, 29, 33, 9, 
    18, -50, 68, 20, -19, 32, -24, 17, 5, -17, 
    57, 3, -37, -11, 10, -49, 52, 66, 35, 16, 
    -16, 1, 36, -1, 16, 75, 41, -16, 11, 41, 
    -42, -29, 33, -20, 2, -22, -25, 70, 24, -53, 
    -2, -61, 19, -16, -26, -24, 23, 9, -16, -9, 
    -57, 4, -7, 10, 34, 49, -8, -3, 14, 15, 
    2, -6, -26, -57, -7, 7, -10, -31, -20, 27, 
    10, -25, 7, 1, -20, -37, -36, -48, 33, -23, 
    34, -18, -14, -24, -80, -13, -24, 66, 0, -6, 
    66, -39, 30, -34, 25, -49, 13, 29, 45, 49, 
    -48, -10, 33, 9, -44, -8, -29, -19, -34, -67, 
    36, 68, -27, 40, -38, 45, -19, -59, 32, -22, 
    7, -25, 15, -3, 4, -5, 23, 43, 112, 14, 
    -26, 8, 25, -13, 58, 7, 23, -78, -15, -17, 
    16, 22, -88, 10, -43, -3, -20, -22, -42, 37, 
    19, 37, -36, 16, 34, -22, 46, 50, 9, -42, 
    43, -32, 5, 45, 21, -38, -24, 6, 68, 54, 
    -32, -36, -27, 46, -50, -4, 56, -16, 7, -24, 
    -43, 87, -57, 20, -50, -56, -51, -14, -7, -12, 
    26, 36, 0, -9, 20, -27, -27, 4, 26, -33, 
    -15, -21, -9, -3, -38, -18, 35, -17, 1, -7, 
    -6, -36, 15, 30, 41, -37, -16, -24, -6, -1, 
    -1, -33, 59, 28, 24, 36, 50, -50, -17, 43, 
    -38, -42, -14, 52, 4, 14, -16, -10, -31, -31, 
    103, -4, 16, 34, 11, 8, 10, -35, -24, 24, 
    12, 0, 12, 2, -76, 11, 35, -10, -29, 1, 
    -10, 38, 41, 13, -26, 22, 14, 21, -45, -2, 
    -19, 27, 60, 58, -17, 8, 79, -8, -29, 13, 
    51, -22, 40, 25, -9, -63, -3, 5, 35, -8, 
    -61, -48, 2, -30, 20, -71, 14, 7, -27, 41, 
    46, 57, -4, 57, -3, 31, 41, -28, 21, -20, 
    17, 8, 46, -36, 19, -35, -27, -11, -13, -42, 
    60, -27, 46, -6, 61, -18, 28, -12, 35, 3, 
    9, -4, -17, -34, 1, 4, 50, -5, 23, 8, 
    -4, 52, 2, -50, 46, -58, 17, 14, 51, -12, 
    8, -42, -80, -27, 15, -13, -21, -40, 39, 9, 
    27, 17, 56, -47, -12, 45, -10, 33, 7, 21, 
    -17, -47, 34, -53, 45, -53, 59, 0, -34, 18, 
    5, -34, 53, -26, 20, -15, 22, 27, -38, 41, 
    -18, -11, 0, -23, -66, -34, 40, 44, -38, 9, 
    -2, -51, -34, -36, -44, 67, -38, 15, 41, 67, 
    35, 79, 18, -34, 27, -20, -45, -5, -42, -30, 
    -7, -47, -84, 28, -27, 40, 28, -66, 2, 7, 
    17, 29, 39, -38, 10, -62, -54, -23, -70, -14, 
    -10, 52, 35, -4, 41, -13, 18, -54, -8, -20, 
    -45, -31, 14, 55, 33, -20, -25, 20, 45, 27, 
    15, -58, 43, 9, 68, -11, 68, 48, -39, 1, 
    -2, -52, -10, 8, 30, 19, 9, 34, 40, -57, 
    4, 37, -17, -41, -32, 35, 2, 10, 19, -24, 
    -24, 46, 24, 39, 33, 0, 0, 22, 40, 16, 
    10, -29, -60, -39, 30, -12, 22, -35, -26, 17, 
    37, 41, 45, -30, 12, -36, 11, -29, 0, 27, 
    14, -66, 32, 44, 25, 20, -29, -1, 127, -1, 
    4, -2, 51, -9, 42, 50, 41, 2, 58, 43, 
    -44, 27, -53, -25, -15, -28, 40, -29, 17, 16, 
    -2, -28, -6, 21, 20, 9, 18, 9, -42, 38, 
    -86, -63, -46, -3, -4, -15, -32, -43, 61, 1, 
    70, 14, -24, 34, -10, -47, -17, -2, -41, 5, 
    -16, 21, 37, -19, -71, 10, 43, 7, -30, 36, 
    -58, 12, 33, 51, -18, -12, 31, 45, -25, -25, 
    39, 29, 24, -42, 41, -45, -5, -33, 76, -16, 
    29, -40, 56, 28, 65, 40, -43, 2, -38, 60, 
    -31, -28, 52, -59, -3, 28, 7, -7, -16, -57, 
    6, -12, 7, -58, 49, -32, 35, -10, -33, -16, 
    -65, -12, 48, 25, 33, 19, -17, -12, 12, 0, 
    42, -14, -9, 5, 73, 6, -14, -17, -26, -8, 
    -36, 5, 6, -75, -23, -83, 16, -99, -26, 26, 
    -10, 20, -10, 14, 13, -25, -9, -44, 10, 0, 
    57, -36, 0, -41, -7, 6, -8, -5, -26, 18, 
    8, 24, 29, -28, -33, -27, 24, 9, -40, -46, 
    -64, 30, 16, 18, 30, 21, 22, 46, -16, 47, 
    38, -25, 24, -42, 13, 16, -50, 4, -40, 6, 
    21, -54, -48, 25, 14, 0, -42, -38, -33, -46, 
    -3, 38, 44, 31, 19, -7, -36, -8, 0, 20, 
    10, -26, -8, 73, 14, -43, 20, 66, 45, 41, 
    20, 37, -2, 17, 15, -6, -82, 31, -40, -40, 
    2, 20, 35, -34, -24, 37, -39, -48, -16, -48, 
    -32, -12, -44, -16, -28, -41, 8, -94, 66, 15, 
    -18, -12, -43, 72, 28, -1, -7, -32, -16, -34, 
    16, -29, 35, 26, 33, 2, -47, 12, 46, -8, 
    -5, 40, 20, 29, 10, 13, 37, -54, -8, 23, 
    67, -15, -33, 40, -44, -56, -11, 51, -19, -46, 
    4, 14, -47, 29, 55, 37, 26, -12, -44, -11, 
    -50, -11, -30, -32, 43, 22, -25, -24, -2, 43, 
    -12, 71, -19, -53, -28, -32, -7, 82, 1, 65, 
    34, 48, -7, 32, 47, -8, -79, 10, -10, -7, 
    7, -26, -27, 38, -36, 39, -52, 6, -59, 16, 
    -8, 36, 8, 69, 41, -9, -48, 27, -25, 24, 
    -85, -19, 6, -51, -45, 49, 20, -22, -14, 20, 
    -45, 47, 14, -25, -32, 17, 42, -29, -7, -12, 
    22, 32, -2, -3, 43, 26, 53, 19, -8, 26, 
    25, 7, -46, 50, -37, 52, 4, -65, 47, 32, 
    4, 8, -67, -32, -38, -31, -36, 45, -16, 13, 
    34, -42, -1, -30, -13, 43, 3, -31, 11, -8, 
    33, -34, 25, -48, 25, -22, -53, 19, -46, -77, 
    -48, -28, 10, -40, 40, -5, -10, -16, 34, 22, 
    45, 32, 1, -1, -23, -34, 2, -27, -75, -11, 
    -36, -43, 69, -38, 14, -49, 40, -40, 46, -31, 
    -14, -9, 31, -28, 35, 23, -11, -33, 53, 9, 
    -66, -27, -1, 29, 22, 75, 43, 0, -6, 16, 
    -2, -42, 49, -17, -39, -3, -3, 17, 8, -41, 
    -51, 0, 26, -5, -12, 18, -22, 64, 23, 39, 
    -69, 9, 10, -9, 38, -42, -38, -5, 4, -13, 
    -28, 26, -32, -44, -21, -8, -25, 18, 47, 36, 
    -38, -30, 49, 35, -55, 5, 9, -16, 0, -39, 
    -17, -55, -6, 17, 67, 9, 10, -24, 30, -38, 
    30, -27, 27, 35, -62, 21, -54, 44, 9, 1, 
    47, -30, 80, 12, -19, 28, 67, 24, 20, 0, 
    -20, 4, -8, -39, 24, -5, 23, 17, -62, -47, 
    10, 83, -41, -18, 50, 43, -37, -83, -36, -52, 
    -18, 23, -9, 18, -74, 4, -46, -21, 10, -20, 
    -16, -53, 22, 16, -19, 45, -15, -43, -54, 31, 
    -10, 35, 40, 36, 52, -4, 48, -24, -37, -47, 
    -20, 56, 27, 5, 12, -94, -33, 38, -15, -50, 
    -25, -70, 1, -27, 19, -5, 33, 102, 26, -11, 
    -9, 22, 47, -5, 42, -63, -21, 36, 42, 24, 
    11, 8, -36, 25, -23, 17, 11, -22, -14, -27, 
    -48, 40, 15, -3, 28, -30, -43, -7, -55, -58, 
    -53, -9, -48, -62, 32, 2, 4, 51, 30, -8, 
    0, 38, -46, 47, 37, 56, 10, 26, -24, 38, 
    -8, 14, 51, -46, 53, 19, -33, 5, -30, -55, 
    8, 6, -22, -3, 15, -15, 25, 0, -49, -52, 
    21, -29, 23, -57, 20, 54, 15, -29, -10, 4, 
    28, 13, -32, 9, -29, -18, -15, -38, -35, -29, 
    15, -35, 16, -40, 40, 21, -34, 9, -8, 32, 
    71, 17, 27, 1, 82, -26, 59, -24, -3, -15, 
    -19, 20, -24, -1, 5, 18, -31, 43, -2, -16, 
    39, -3, -44, -12, -62, 26, 9, -26, 45, 29, 
    -38, 9, -6, 46, -61, 45, -36, 32, -44, -22, 
    -7, 25, -47, -18, -18, -7, -43, -5, 31, 21, 
    -47, 21, -34, -33, -46, -18, -20, 10, 9, -45, 
    18, -37, 49, 15, -39, -54, 6, -52, -36, -51, 
    11, -35, -20, -96, -59, 19, 24, -4, 17, 12, 
    -26, 33, 13, 34, 47, 32, -17, -7, -9, 25, 
    69, 27, 39, -23, -36, 39, -13, 30, -32, -50, 
    36, 27, -5, -37, 23, 8, -38, -46, -24, -28, 
    -13, 2, 22, -3, -1, -16, 2, -18, 41, -22, 
    49, -13, -26, 38, -29, -20, -37, -13, 0, -39, 
    -63, 17, -60, -32, 31, 30, 23, -14, 16, -2, 
    -44, 24, -6, -8, 31, -38, -17, -37, 20, -15, 
    46, 55, -26, 39, 15, 11, 13, 10, -49, 74, 
    17, -34, -37, 54, 34, 46, -39, 11, 3, -4, 
    60, -28, 14, 28, -7, 13, 59, 19, -6, 22, 
    28, 56, 43, -33, -12, -37, -26, 50, 35, 36, 
    37, 0, 13, 38, 26, -25, 28, 11, 17, -26, 
    12, -73, -38, 15, 12, 14, -16, -18, -11, 28, 
    63, -12, -14, -22, 7, 24, -67, -16, -33, -21, 
    5, 37, -46, -10, 2, -7, 54, 5, 0, -56, 
    -5, -23, -33, -39, -11, -19, -2, -40, -3, -30, 
    14, 16, 74, -7, -17, -63, 53, -14, 36, -48, 
    48, -3, 57, 48, -33, -56, 51, -23, 6, 46, 
    -25, -18, 2, -7, -31, -44, -32, 60, 2, 26, 
    32, 41, -22, 14, 43, 109, -23, -38, 63, 25, 
    13, -29, -45, -11, -31, -50, 19, 31, -38, -43, 
    -44, -29, 22, -3, -63, -52, -40, 27, 65, 29, 
    -14, -38, 46, -64, 63, 52, 39, 29, -16, 43, 
    2, -53, 37, -30, 58, -14, 30, 62, 4, -70, 
    10, -51, 48, 45, 101, -64, 77, -30, -9, 0, 
    -12, 95, 2, -33, -2, 89, 4, 48, 38, 60, 
    38, -39, -1, 22, 23, 34, -15, -21, 33, -32, 
    -20, -34, -13, 50, 35, -51, 35, 59, -45, -18, 
    -2, 6, 23, 44, -68, -22, -38, -39, 5, -71, 
    -46, 17, -12, -15, -63, -32, 30, 18, 18, -25, 
    -13, -3, 14, -78, 59, -33, 17, 20, 69, 19, 
    34, -81, 14, -42, -82, -21, -10, 13, 41, 66, 
    -6, 18, 9, -42, 75, -25, 65, -11, -26, -16, 
    -66, -13, -39, -14, -36, -21, -45, -9, -65, -2, 
    -12, -71, -8, 54, 53, 5, -8, 43, -20, 14, 
    13, -49, -40, 31, 39, -33, -4, 29, 80, 51, 
    -25, -32, 54, 5, 25, -75, -89, 47, 28, 21, 
    -74, -41, -21, 2, -33, -33, -11, 2, 58, 16, 
    25, 1, 12, -12, -30, -22, -28, 81, -32, 12, 
    0, 29, 24, 22, -4, 25, -6, -4, -13, 39, 
    -48, -33, -24, -38, -45, 24, 12, -31, 12, -36, 
    37, 39, 20, -17, 27, 19, -14, -3, -60, -43, 
    25, 2, 55, -13, 56, 15, -10, 43, 47, -20, 
    -21, 44, -3, 11, -71, 1, -63, -6, -52, 96, 
    17, 19, 37, 16, -14, 75, 29, -2, -6, 58, 
    2, 49, 8, -13, -42, -39, -69, -70, -9, -27, 
    -27, -26, 21, 52, -10, 47, -36, -2, 29, 16, 
    6, 22, -44, -50, 44, 15, -31, -27, 8, 16, 
    20, -24, 12, 16, -47, 53, -22, -24, 40, -22, 
    39, -17, -18, -39, -35, -24, -30, 9, 30, 13, 
    19, 8, -54, -4, -27, 4, 15, -38, -39, 37, 
    56, -55, 8, -42, -18, -53, -62, -14, 48, 9, 
    -40, 16, 12, 57, 45, 57, -3, -13, 42, -27, 
    -36, -34, -37, 2, 31, -33, -22, -68, -17, 20, 
    -14, -41, 64, -51, -32, 10, -44, 49, 18, 53, 
    63, 37, -45, 5, 9, 35, -8, 16, 45, 18, 
    41, 0, 36, -5, 37, 12, 33, 25, -22, 35, 
    -18, 48, 17, 42, -8, 56, -8, -27, 41, 35, 
    57, -31, -23, -23, -29, 58, 42, 24, -19, 26, 
    6, -34, -27, 26, -53, 33, -23, -6, 22, -12, 
    -28, -118, 45, 17, -14, 41, 2, -30, -55, 17, 
    24, 12, 36, 48, -44, -38, -14, 12, -75, 22, 
    -20, 19, 37, -49, 37, -19, 51, 43, 25, 26, 
    17, -45, 19, 36, 48, -50, 14, 54, -41, 64, 
    24, 26, 32, -10, 42, 26, 17, -8, -34, -43, 
    37, 8, 20, 17, -31, -9, 23, -10, 42, 45, 
    -30, 26, -61, 17, 21, -30, 21, -24, -19, -38, 
    5, 3, 43, -37, -4, -46, -42, -7, 24, 24, 
    -28, 24, -33, 9, 25, 52, 63, 0, 21, -60, 
    31, 53, -26, 5, 37, 13, -58, 11, 26, -31, 
    -26, -44, 66, 3, -15, 71, 25, 57, -19, 4, 
    -46, -55, 2, -66, 11, -37, 24, 88, 14, -48, 
    -30, 0, 36, -26, 61, -58, -33, -17, 23, 10, 
    -15, 55, 46, 5, 24, -2, -62, 16, 59, 30, 
    -5, -10, 40, 74, 56, -29, 30, 30, 13, 26, 
    13, 15, -20, -10, -35, 13, 20, 45, 6, 85, 
    -23, -21, 11, -65, 85, 9, -30, -31, -35, -16, 
    -12, -41, 35, 16, -75, -50, -58, 4, 2, 33, 
    -54, -17, -78, -49, -8, 4, -36, 1, 19, -56, 
    -59, 53, 43, 1, -35, -18, 16, -6, -27, 4, 
    52, -25, 37, -7, -50, -40, 31, 59, 14, -50, 
    -33, 15, -41, 37, -80, -36, 9, -9, -51, 25, 
    39, 28, 23, -18, -30, -65, -1, 16, 27, 20, 
    -75, -31, 12, -49, -29, -29, 32, 20, 12, -1, 
    -41, 1, 16, -21, 90, 33, 20, 14, 47, -32, 
    12, -59, -45, -9, -25, 28, 44, 21, 26, -71, 
    -38, -37, 33, -18, -10, 13, -6, -23, 34, -11, 
    -34, 56, -42, -20, 56, -11, -28, 25, 3, -66, 
    30, -38, 31, 48, 52, -84, 49, 0, -25, 45, 
    -52, 87, 25, 56, 21, 45, -25, 5, -32, 17, 
    51, -25, -26, 7, -33, 58, -53, -75, -4, -9, 
    12, -38, 68, 67, 10, 34, -34, -15, 21, 12, 
    -24, 3, -43, 4, -11, -18, 4, 38, -27, -45, 
    -15, -20, 55, 19, -26, 11, -44, -7, 41, -47, 
    -34, -21, -31, -85, 66, 1, 3, 46, 71, -7, 
    8, 39, 7, -2, -57, -3, 51, -41, -20, 77, 
    -91, 37, -4, 2, 35, -50, 39, -58, -96, -1, 
    0, 4, 5, -24, 2, 46, -27, -47, 1, -74, 
    5, -28, -1, 22, -19, 55, -17, -14, -26, -13, 
    -46, 3, -30, -29, -1, -44, -30, -16, -17, -38, 
    47, 25, -26, 29, -18, -9, 18, -17, -54, 20, 
    7, -29, -65, -1, 13, 22, -28, 34, -8, -30, 
    11, -37, -23, 23, 24, -68, -63, 30, -93, 64, 
    -27, -51, 30, -18, 7, 47, -37, -42, -34, -3, 
    54, 18, 28, -31, -13, -39, 47, -74, 61, -41, 
    -20, -16, 37, -15, -47, -2, -59, 31, -19, -67, 
    -1, -26, 41, 7, 4, 6, 24, -47, 30, 49, 
    -13, 8, -14, -29, 71, 42, -22, -29, -45, 10, 
    -68, -29, -49, 17, -14, -69, 6, -11, 13, 61, 
    2, 22, -35, -2, -57, 7, -2, -39, 32, 19, 
    12, -25, -39, -34, 22, 38, 22, -16, 15, -6, 
    -19, 29, 22, -39, 45, 33, -9, 6, -31, -65, 
    23, -22, -42, -5, -33, 52, -15, -1, 54, -13, 
    4, 29, 6, -52, -29, -32, 2, -3, 23, 28, 
    8, 13, -8, -33, 31, -21, 23, 49, -2, -34, 
    -41, -47, 17, -10, -27, -11, -39, 48, 41, 39, 
    6, -42, -43, -15, 47, 59, -17, -46, 20, -29, 
    24, 13, -21, -46, -6, 20, 16, -40, 0, 14, 
    34, -3, 51, -8, -48, -9, -2, 95, -10, -13, 
    24, -54, 31, 82, -37, -2, 45, 19, 22, 22, 
    -30, -26, 18, 14, -2, -58, 30, -29, 1, -18, 
    33, -28, 8, -44, 11, -27, 30, 0, -60, 5, 
    -50, -6, -55, 17, 2, -3, 10, 65, -9, 36, 
    77, 24, 52, -70, 75, -9, -37, 49, 5, -70, 
    -54, 14, 16, 63, -12, -20, 37, 26, 1, 6, 
    6, 35, -3, -13, 7, 10, -2, -1, -24, 12, 
    -27, 1, -42, -20, 31, -2, 8, -5, -36, 29, 
    -23, -43, 55, 46, 19, -21, 25, 5, 22, -68, 
    60, 16, -2, 2, 43, 57, 22, -2, 21, -10, 
    11, 58, 1, 37, 2, -23, 0, 58, 0, -47, 
    39, -51, 20, 5, -69, 30, -69, -13, 24, -6, 
    -44, 31, -79, -27, 20, 43, 41, -38, -47, -53, 
    -83, -40, -33, -22, -3, 31, -1, 18, -66, 28, 
    -12, 17, 8, 18, -33, -22, 19, 60, -32, -32, 
    -14, -80, 29, 57, -31, -5, 47, -47, 14, 8, 
    18, -3, 24, -48, 28, -10, 0, 0, -30, 21, 
    -23, -40, -24, -42, 11, 4, -26, 36, 21, 54, 
    -58, 63, 39, -43, -1, -28, 10, 3, -37, 57, 
    -3, -34, 26, -55, -47, -16, 27, 16, -11, 23, 
    7, 29, 51, -53, 65, -34, 61, -10, -24, -2, 
    -14, -5, 2, -1, -33, -6, 38, -1, -5, 19, 
    -6, 13, 46, 33, 14, -4, -20, -56, -27, 7, 
    -26, 27, -8, 54, -3, -37, 20, -25, 33, 71, 
    -43, -31, -24, -49, 33, -3, 12, 15, 15, -60, 
    53, -20, -29, -53, 2, 18, -5, 26, 3, -12, 
    -31, 70, 52, -22, -24, 10, -28, 27, -12, -2, 
    7, 34, 34, -26, 31, 13, -21, 10, 24, -15, 
    4, -28, -33, 19, -28, -10, -19, 0, -20, 37, 
    42, 39, 18, 16, 21, -5, -8, 10, 37, -26, 
    -54, 32, 47, 40, 22, 20, -39, 16, 38, -3, 
    -33, -25, -30, -32, -31, 2, -39, -25, 12, 46, 
    -14, 34, 19, -23, 29, -36, 40, -28, -70, 0, 
    16, -25, 22, -40, 48, -6, -18, -14, 6, -12, 
    15, 55, -55, 32, -66, -1, -52, 2, 45, 74, 
    -6, -31, -46, 60, -4, -48, -9, 29, 26, 44, 
    -4, -75, -38, 14, 82, 68, 62, -67, 8, -43, 
    -20, 6, -51, 85, -44, -15, -3, 42, -72, -16, 
    64, -6, -10, -66, 31, -1, -8, 37, -51, -51, 
    5, 47, 3, -9, 25, 72, -8, 37, -3, -2, 
    61, -31, -65, 2, 7, -3, 2, -30, -37, 49, 
    -47, 20, -3, 25, 36, -10, -35, -18, 9, 67, 
    63, -40, -4, 29, 12, -1, -50, -11, 73, -64, 
    -61, -59, 11, 72, 12, 26, 29, -31, -81, -22, 
    85, 31, 28, 59, -17, 13, 31, -33, 68, 26, 
    50, 25, 16, -45, 11, 17, -11, -2, 57, -53, 
    35, 0, -32, 52, -33, 35, 30, 34, 32, -51, 
    33, 48, -6, 48, 44, -20, 5, -11, -45, -21, 
    67, -36, 20, -57, 17, -1, 33, -21, 67, -68, 
    18, -10, -11, 8, 60, -39, 51, 27, -13, -56, 
    -70, 64, 80, -15, 67, -3, -12, 11, 66, -34, 
    72, -60, -28, -47, -12, 56, -44, 5, -39, 45, 
    10, 5, 73, 22, -36, -9, 50, -76, 27, -37, 
    -32, 10, 9, 102, -21, 42, -33, 25, -5, 17, 
    1, -4, -4, -87, 2, 5, -59, 2, 32, -32, 
    18, 34, -4, 60, 29, 1, -16, 13, 14, -18, 
    10, -64, -23, 3, 18, 6, 11, 43, -8, 39, 
    56, -13, -56, 19, -48, 27, 33, 12, 35, 14, 
    33, 13, -10, 23, -54, -40, -37, -70, 67, -49, 
    9, -32, 34, -1, 40, -41, -15, 21, 42, -9, 
    49, 14, -40, 19, -1, -56, -29, 17, -56, -17, 
    10, 41, 28, 34, -61, 19, 2, 13, -57, -14, 
    -7, -38, 39, -11, -48, -67, -26, -61, -40, -1, 
    22, 14, -75, -22, -66, -8, -26, -44, 6, 3, 
    -15, -29, -7, -44, 46, -2, -10, 25, -14, 6, 
    -34, 42, -20, -43, -42, 6, -54, -55, 39, -54, 
    1, -22, 12, -9, 42, -39, -8, 10, -57, -10, 
    -36, 9, 26, -33, -2, 27, 54, -10, -14, 52, 
    15, 63, 26, 5, 60, 19, -33, 10, -24, -23, 
    -5, 63, -21, -34, 20, -93, -36, 8, -39, -30, 
    -24, 38, -12, 41, -29, 27, -35, 58, 6, -1, 
    -27, -11, 64, 39, 4, -15, -29, -34, -44, -27, 
    -24, -18, -6, 48, -20, -12, -20, -30, 0, 37, 
    -25, 26, -38, 14, 3, -27, -38, 15, 17, -31, 
    47, -7, 34, -26, -31, 46, 14, 27, 38, 48, 
    -44, 30, -23, 0, 18, 16, 1, -6, 16, -42, 
    -41, 36, 55, -28, 30, -15, 10, 7, 15, -1, 
    -26, -39, 8, -31, -58, -44, -19, -5, 42, 37, 
    37, 9, -19, 46, 22, 54, -3, 16, 2, -42, 
    -50, 6, -4, -33, 30, -47, -34, -22, -56, 57, 
    3, -26, -15, 14, -51, 50, 22, -29, 39, -48, 
    -37, -43, 4, 7, -32, 36, 30, -30, 48, 26, 
    6, -3, 38, 13, -1, 54, -27, -8, 25, -27, 
    -17, -36, 26, 21, -38, -14, -27, 19, -20, 40, 
    56, 32, 21, -2, -42, -24, -17, 16, 58, -67, 
    42, -47, -21, 39, 47, -24, -31, 54, 5, 7, 
    7, 85, 56, -18, -11, 28, 13, 18, 25, -13, 
    15, 67, -57, -9, -10, -49, -48, -25, -29, -3, 
    0, 23, -10, 54, -45, 83, -52, 28, 28, -3, 
    -46, 12, -40, 58, -27, 8, 30, -7, 45, 25, 
    -7, 26, 33, -13, -33, -56, -7, -2, 20, 57, 
    52, -27, 24, -28, -8, -41, -7, 37, -31, 1, 
    -5, -31, -40, -2, 11, 4, 43, 2, -39, -11, 
    -19, 8, 8, -32, -5, -23, -14, -59, 40, -38, 
    -32, 9, 41, 55, 33, 15, 50, -38, 46, -21, 
    -104, 89, -2, -43, -47, -1, 56, 78, 25, 7, 
    -11, -17, 36, -42, 5, 14, 50, 27, 50, -4, 
    -10, -30, 21, -27, -39, -5, -7, -7, 24, 20, 
    35, 21, 7, -5, 49, 8, 23, 10, -16, 33, 
    -53, 34, 14, -54, 28, 15, -35, -16, 46, -30, 
    -23, -21, 0, -18, 2, 15, 40, 46, -18, 16, 
    -36, -49, 15, -28, 58, 46, 56, 73, -26, -8, 
    5, 14, 29, 24, 32, -77, -1, -11, -36, 39, 
    -9, 23, -13, -3, -56, 56, -20, -65, 37, -20, 
    9, -57, -3, 37, -41, 34, -40, -43, -34, 35, 
    -43, -26, 13, -23, 39, -58, 26, -32, 24, 33, 
    23, -9, -8, 27, 16, -25, 48, -51, 25, -54, 
    19, -14, -44, -40, 14, -35, 53, -60, -14, 59, 
    28, -34, 53, 16, -38, -26, -12, 33, -8, -4, 
    9, -45, 11, 9, -28, -41, -36, 14, 10, -16, 
    13, -42, -1, -25, -19, -8, -25, 26, -6, -13, 
    -5, 8, 81, 22, 1, -40, -47, 8, 70, -7, 
    -52, 16, -1, 13, 46, -18, -43, -26, 0, 12, 
    -62, 43, -10, 13, -4, 19, -90, 59, 7, -2, 
    3, 0, 40, 12, -11, 20, -29, -39, -53, -1, 
    -3, 21, 41, 11, -13, 28, 55, -42, -27, -47, 
    -46, -18, -4, 3, -24, 9, 24, -26, -31, 42, 
    -35, -50, 8, -8, 11, 30, -50, -61, 43, -51, 
    -41, 30, -48, 39, 6, -13, 74, 39, 39, -7, 
    24, -38, -14, -1, -31, -31, -1, 4, 6, 25, 
    -65, -48, -23, -56, 37, 35, -64, -16, 33, 36, 
    35, 3, 39, 68, 49, 46, -28, 28, -47, -53, 
    12, -34, 14, -58, 1, -17, -30, 73, 19, -46, 
    -19, -36, 18, -29, -23, 4, 8, -19, -42, 8, 
    15, -51, 9, -53, 8, -15, -32, 39, -16, 12, 
    34, -5, -54, 18, -16, 18, 2, 32, -13, -18, 
    -31, 43, -13, 6, -13, -42, -23, -38, -7, -48, 
    41, 33, 7, -59, 33, 27, -32, -12, 9, 37, 
    3, 41, 41, 18, 30, -9, 7, -55, 20, 17, 
    -30, -38, -17, -18, 31, 22, -1, 7, -19, -17, 
    35, -3, -15, 79, 19, -43, 20, -61, -52, 8, 
    -24, 28, -64, -33, 11, -4, -5, 0, 21, 5, 
    42, -26, 21, 41, 3, 58, -29, 33, -56, 1, 
    -54, -35, -7, -17, -10, -34, -32, 30, 4, 30, 
    -20, 23, 60, -37, 40, 35, 10, 31, 75, -21, 
    7, -41, -20, -45, 28, 29, -61, -23, -13, 36, 
    9, -12, 70, 48, -51, 48, 31, 21, 0, -20, 
    2, 13, 37, 13, -49, 45, -28, 27, 55, 25, 
    0, -9, 58, 6, -44, -58, -15, -22, -20, 4, 
    20, -9, 51, -44, -57, -1, -53, 70, -22, -14, 
    -18, 41, -14, 34, 21, 32, 40, -46, -49, -62, 
    -12, -5, -2, -47, -6, 17, -59, -29, 12, -47, 
    -11, -22, -44, -67, 5, 57, -9, -4, -41, 27, 
    -39, 48, -15, -18, 29, 5, -2, 14, 29, 8, 
    18, 48, -15, 10, -19, -37, 26, 37, 62, 37, 
    1, -31, 31, 22, 46, -51, -22, -30, 30, -19, 
    40, 82, -50, 29, 53, 59, 35, -15, -10, -26, 
    41, -31, 59, 47, 34, 2, 7, -44, 6, 22, 
    -7, -24, -40, 24, 7, 37, -33, 16, -45, 50, 
    -90, -30, -9, 75, -4, 45, 23, 33, -16, 6, 
    -52, -3, 31, -14, 66, -47, -6, -12, 28, -26, 
    43, -62, -39, -27, 30, -14, -2, 28, -19, -4, 
    -5, 13, 7, -35, 70, -37, -14, -25, 30, 26, 
    58, -14, 8, 26, -12, 30, -13, 32, 21, 30, 
    33, 54, -4, 35, 50, 7, 1, -25, 1, -23, 
    51, -30, -36, -42, -1, 4, -36, 25, -31, -42, 
    30, 37, 0, -53, 0, -22, 0, -33, -18, 43, 
    -26, -28, 26, -39, -74, 38, 19, -1, -9, -15, 
    2, -31, 41, -16, 9, 8, 20, 38, -16, -39, 
    -8, 17, -31, 26, -42, 12, -27, -6, 5, -5, 
    41, -37, -49, 37, 20, -26, 41, 11, 15, -26, 
    -19, -12, 41, 62, 40, -20, 46, -66, 17, 67, 
    -28, -52, 30, -13, -48, -53, -48, -43, -45, 58, 
    -21, 14, 1, -26, 13, 34, 7, -8, 17, 14, 
    -81, 3, -7, 53, 20, 19, -13, -56, 28, 42, 
    29, -43, -18, 22, -8, 31, 13, -52, -9, -17, 
    -27, 42, -36, -6, 24, 0, 52, -49, -5, 54, 
    16, 67, -45, -55, 33, 35, 29, -17, -25, 14, 
    19, -32, 2, -5, 23, -22, 56, -62, 37, 54, 
    -60, 3, 31, -2, 62, 27, 24, -23, -22, -44, 
    16, -49, 35, -47, 3, -10, -53, 11, 26, -13, 
    -20, -9, -28, 44, 29, -16, -21, -13, 18, 75, 
    74, -45, -1, 6, 34, -32, 2, -10, 48, 48, 
    -52, 21, 28, -33, 7, -25, -16, 30, 3, 31, 
    -10, -2, 47, 8, -2, -2, 96, -12, 45, 2, 
    -55, 54, 22, 37, 23, 29, -51, 59, 5, -51, 
    -61, -10, -33, -59, -40, -35, 13, -57, -44, -3, 
    -32, -24, 15, -25, -52, 0, -63, 7, -10, -57, 
    11, -6, -14, 64, 5, -34, -14, -63, -8, -58, 
    -15, -26, 11, -8, -3, -13, 5, 50, 4, 28, 
    -27, 30, -39, 5, -12, 11, 28, -9, -55, -22, 
    -7, 44, 53, -1, -19, -47, 92, 22, 41, 24, 
    27, 24, 32, 43, 43, 17, 47, 31, 30, -29, 
    -3, -32, -43, 38, -45, 37, 20, 23, 17, 34, 
    11, 48, -14, -11, -29, -2, -43, -32, -34, -11, 
    -4, -28, -63, 18, -24, 26, -46, -35, 24, 56, 
    19, -4, 30, 12, 19, 22, -15, -44, -30, -21, 
    47, -32, -7, -24, -47, 38, -15, 57, -62, 44, 
    20, -23, 63, 24, 17, 27, -9, -32, 61, -48, 
    17, -18, 13, 29, -6, 22, 53, 4, -40, -4, 
    -27, -19, 51, 19, -39, 67, -19, -12, -55, 50, 
    9, 55, 64, -24, 40, -35, 18, -48, -10, -47, 
    -63, 32, 31, 10, 43, -55, 25, -51, 31, -5, 
    -55, -43, 48, -8, 21, -55, 2, 32, -15, -4, 
    -1, -10, -63, -45, 33, 51, 49, -42, -2, -38, 
    26, -26, 44, 45, 18, -47, 30, 41, 49, -39, 
    34, 30, -22, -23, -5, -58, -10, 20, -56, -28, 
    28, 21, 40, -24, 7, -8, -21, -17, 33, -18, 
    -50, -23, -48, 1, 9, -33, -33, -11, -36, 16, 
    -6, -17, -23, 10, 8, -61, -27, 64, 16, -51, 
    -19, -36, 0, -26, -33, 55, -33, 2, -26, 20, 
    -34, 36, 44, 11, 3, -58, -22, -58, -56, 2, 
    -55, -76, -25, 49, -36, 13, -19, -39, 68, -30, 
    21, -58, 39, -13, 31, -14, -39, 6, 53, -2, 
    -6, 3, 25, 44, -29, 27, -46, -40, -9, -18, 
    37, 16, 19, -20, 48, 52, 27, 34, -24, 24, 
    52, -17, -37, 42, -51, 34, 24, -24, -60, 4, 
    -20, 7, 31, 38, -21, 56, 35, -47, -13, 4, 
    37, -46, -50, -34, -7, -25, -1, 45, -36, -42, 
    34, -22, -8, -20, 36, 30, -7, 38, -56, -35, 
    -63, 46, 64, -50, -19, 34, 24, 33, 32, -25, 
    -1, -67, -48, -66, -70, -45, 21, -42, 34, -33, 
    44, 14, -38, 35, -53, -46, 7, 1, -47, -16, 
    0, 29, 45, -21, -53, 18, -44, -36, 70, 24, 
    -43, -31, -12, 43, -5, 29, -21, 6, 18, 24, 
    -54, -4, 1, 22, 11, -56, -32, -4, -16, -60, 
    -25, 27, 67, 10, -6, 63, -34, 5, 43, 18, 
    44, 4, -23, 72, 36, -21, 34, 48, 17, 4, 
    -38, -4, 36, -33, 24, -16, 26, -7, 29, 21, 
    21, 51, 8, -13, 19, -20, 59, 46, 43, -22, 
    25, 51, -5, -61, 52, -70, 19, -10, 18, -23, 
    16, 6, 62, 46, 9, 34, -49, -54, 58, 23, 
    -14, -27, 36, -30, 34, 71, -22, 1, 30, 5, 
    16, 8, 10, 64, -52, 40, 1, 38, 47, -10, 
    -49, -12, 6, 12, -25, -38, -3, 38, 50, 24, 
    22, -32, -25, -4, -63, -10, -10, 71, 12, -45, 
    3, 46, -35, -17, 2, -18, -7, 35, -1, 38, 
    41, 7, -5, 32, 8, 25, -5, -68, 11, 53, 
    -53, -1, -30, -33, 33, 17, 7, -33, -16, -19, 
    -60, 48, 36, 16, -28, 17, 19, 54, 30, 39, 
    -37, 38, 49, -13, 52, -10, 38, -7, -43, -39, 
    61, -54, -34, -27, 31, -3, 5, -22, -60, 38, 
    -26, -38, -39, 31, -37, -14, -5, 4, -15, -21, 
    48, 20, 30, 35, -62, 49, -27, -35, 37, -51, 
    -22, 24, 9, 12, 79, 27, 5, -35, -28, -26, 
    2, -18, -41, -7, 5, 7, -38, 4, 17, 5, 
    -2, 11, 5, -30, -30, 15, 64, 10, -21, 39, 
    -19, -50, -22, 45, -57, -1, -42, 35, -11, 34, 
    49, 9, -11, 5, 20, -7, 11, -8, -33, 17, 
    0, -41, -45, 58, -44, 8, 22, 28, 15, -73, 
    56, -38, -39, 9, -35, 33, -47, -44, 31, -23, 
    -16, -35, -33, -66, 4, 43, 29, 2, -26, -16, 
    -34, -39, -8, 59, 47, -14, -32, -19, -11, -17, 
    -10, -34, -70, 16, -41, -37, -20, -52, -28, 23, 
    -21, 28, 2, 27, -4, -35, -22, 44, -5, -23, 
    -50, 47, -29, -70, 61, -18, 23, 51, -15, 1, 
    -7, -7, 10, 44, -2, 28, 38, 63, 20, 12, 
    -36, 42, -41, -20, 27, 1, -24, -3, -15, 8, 
    -1, -3, -60, -24, -35, 8, -33, 63, -11, -19, 
    -54, 18, 35, -21, 31, -5, -54, 10, -69, 37, 
    -43, -49, 47, 43, 10, 42, -24, 38, 11, 43, 
    -18, 21, -26, 3, 49, 23, 42, -29, 25, -15, 
    5, -56, 52, 37, 11, 16, -44, -24, 3, -42, 
    -29, -22, -39, 11, -49, -25, -25, -37, -23, 8, 
    44, 44, 69, 0, 21, -41, 51, -40, -12, -14, 
    36, -12, -26, 68, 27, 0, 26, -34, 6, -3, 
    -44, 7, -38, 17, -2, 20, -15, 28, -34, -50, 
    35, 19, -8, -7, 14, -6, -31, 24, -25, -2, 
    10, 72, -33, 10, -47, -37, -25, 30, 18, -23, 
    -5, 40, 18, 24, -50, -62, -42, -6, -25, 5, 
    -35, -46, 47, 16, 34, 16, 45, 24, -31, 28, 
    -34, -33, 35, 36, 46, -22, 9, 32, 14, -11, 
    40, 29, 43, -26, -32, -31, -60, -32, 18, -29, 
    10, -2, 11, -63, 42, -7, 18, 14, 69, 34, 
    57, 26, -1, 19, 27, 39, 27, -38, -57, 36, 
    3, -36, 9, 25, -29, -27, -24, 29, -39, 31, 
    -34, -56, -19, -22, -22, 37, 13, 29, -21, -12, 
    -62, 37, 19, 39, -44, -2, 27, 22, 41, -18, 
    39, -35, 8, -11, 22, 33, 29, 25, 20, 11, 
    -36, 35, 26, 13, -36, 6, -13, 45, 27, -1, 
    33, -54, 16, 10, -7, -66, 22, 53, -22, 37, 
    17, -17, -26, -24, 4, -68, 4, -46, -3, 22, 
    37, 15, 74, 4, -30, 10, -15, 13, 19, -46, 
    24, -21, 26, 45, -31, 48, 3, 32, -3, 36, 
    23, 14, -45, 8, -64, -53, -54, -22, 35, 15, 
    34, 35, -37, -55, 32, -31, 22, -21, 78, 82, 
    -16, -19, 22, -10, -15, -24, -11, -20, -12, -25, 
    33, -1, 34, 20, 9, -17, -13, 18, -43, -64, 
    -19, 1, -45, 5, 38, 5, -22, 14, 6, 13, 
    -6, 45, 45, 34, 8, 41, 8, 51, 27, -3, 
    47, -15, -14, 32, 9, -5, 21, 39, -5, 47, 
    43, -29, 61, -13, 46, -30, 27, 32, 18, -3, 
    -40, -28, -66, 16, -18, -13, 43, 23, 5, -31, 
    12, 15, 83, 7, -13, -27, 13, -56, 7, -43, 
    0, -11, -54, 54, 37, -22, -31, 0, -43, -23, 
    -16, 20, -23, -25, 52, 46, 56, 3, -13, -11, 
    76, 38, 25, -16, 33, -68, -30, 50, 15, 31, 
    10, 11, 13, 49, 34, 7, -1, 41, 64, 16, 
    -15, -26, 18, 71, -21, -42, 7, 9, -18, 32, 
    4, -17, -7, -16, 30, -37, -68, 63, -50, -48, 
    -25, 15, -6, -22, 16, 22, -48, -1, 31, -23, 
    55, -47, 15, -40, 18, 43, 52, -44, -28, -32, 
    23, 52, -9, -11, -13, 23, 5, 38, -60, -43, 
    40, 7, 7, -9, -12, -12, -34, -49, 43, -22, 
    -18, -25, 10, -29, 10, 14, -31, 21, -28, -2, 
    -38, -16, -4, 3, -2, 70, -64, -7, 23, 60, 
    -20, -17, 10, 65, 35, -40, -38, -34, 3, -23, 
    43, -73, -3, 41, 34, -37, -16, 53, 37, -5, 
    -2, 10, 50, 27, 6, -32, -20, -6, -17, -18, 
    15, 39, -61, -17, -69, 22, 27, -5, -15, -33, 
    -45, 31, 55, -23, -75, -11, 46, -5, -41, 1, 
    14, 27, 51, 22, 17, -17, 27, 35, 2, -10, 
    33, -25, -32, -4, 19, -58, 3, -18, -3, -66, 
    15, 29, -59, -18, 10, 19, 21, -29, -40, 3, 
    -2, -35, -5, -50, -14, 67, -24, -32, 18, -13, 
    -59, 28, 16, -19, 26, -30, -45, 11, -17, 33, 
    -49, -14, -2, 13, -9, 17, -34, 12, -7, 16, 
    12, -19, -2, 7, -15, 33, -27, -53, -47, -54, 
    -62, -3, -18, 49, -31, -26, -30, -2, 55, 24, 
    -4, 29, -51, 47, 36, 7, -47, -11, 0, -6, 
    48, 40, -29, -22, 63, -9, 22, 23, -23, -48, 
    -5, 18, 40, 28, -4, -29, 4, -8, 21, -37, 
    -72, 85, -36, 32, 15, 9, -4, -36, -21, 28, 
    -30, -28, -45, -14, -15, 20, -56, -11, -37, 6, 
    15, 31, -43, 3, -20, -1, 27, -8, -12, 47, 
    -16, 21, 2, 21, -32, 36, 12, -13, 2, 41, 
    57, 58, -44, -19, 15, 34, 78, -61, -77, -34, 
    -10, -17, 23, -51, 22, 39, 8, -29, 46, -22, 
    -43, 10, 0, -30, 51, -23, -47, 4, -45, 35, 
    30, -39, 42, -13, 21, 44, -14, 45, 4, 20, 
    -44, 5, 10, 31, 34, 13, -19, 6, 19, -50, 
    5, 18, 4, 38, -34, -44, -25, -19, -65, 34, 
    12, 33, 119, -67, -67, 26, -42, -29, 6, 9, 
    -26, -49, -10, -15, 52, -28, 3, 61, 44, -5, 
    35, -33, 11, 12, 35, 0, 30, 9, 20, 18, 
    -54, 33, -1, 44, -19, 25, 1, -34, 8, 11, 
    47, 26, 38, -3, -30, 18, 33, -19, -11, -13, 
    -25, -41, -31, -54, -20, 1, 1, -45, 41, -34, 
    48, 11, 4, 55, 43, 2, 21, 48, 57, -18, 
    4, 49, 2, 33, 8, -45, 36, -65, -50, 8, 
    48, -43, -47, -4, -5, -37, -28, -24, 38, 41, 
    12, -37, 36, 24, 22, 17, 16, 45, 18, -37, 
    -27, 10, -23, -6, 34, -9, 34, 23, -29, 9, 
    -32, 3, -23, 12, 8, 14, -7, -24, -27, -21, 
    -41, 5, -28, 40, -8, 57, -15, 27, 20, 17, 
    65, -54, 55, 47, 8, 41, 30, 26, -14, 42, 
    -62, 34, 6, -20, -21, 6, 40, -53, -31, -47, 
    -63, -9, 9, -62, -16, -28, 32, 41, -33, 4, 
    -7, 8, 19, -26, 35, -27, -3, 11, -18, -29, 
    20, 33, -48, -45, -41, -73, 62, 41, -57, -57, 
    8, -50, -9, 18, 16, 47, 70, -53, 29, -34, 
    38, 16, -53, 51, 21, -22, -13, 45, -59, 13, 
    -2, 40, -34, 0, 55, 23, 34, -12, 46, 34, 
    16, -2, -13, -13, -12, 39, -29, -20, -45, 23, 
    10, 28, 12, 22, 44, 14, 15, 44, 6, 6, 
    -1, 4, 38, -20, -45, 17, -1, 33, 35, -19, 
    -50, 11, -34, -1, 10, -7, -28, -58, 42, 6, 
    -38, 8, -52, -25, 65, -29, -4, 5, 11, -18, 
    3, 48, -41, -34, 36, 44, -25, 25, 64, -17, 
    28, -28, -61, 25, -50, -9, -38, 8, 4, -32, 
    24, 22, -47, 1, -9, -5, -15, 38, -44, 5, 
    38, -89, -48, -30, -18, -42, -1, -32, 13, -4, 
    55, 87, 71, -20, 43, 29, -10, -43, -20, 51, 
    61, -48, 40, 14, -48, 31, 42, 26, 29, -10, 
    41, -25, 54, -16, 54, -53, -7, 50, -46, -57, 
    23, -2, 18, 32, 19, -15, -23, 45, 50, -28, 
    22, -49, -15, -35, -9, 45, -44, 5, 3, 4, 
    -49, -38, 31, 7, -38, 1, 2, 44, 34, 33, 
    -30, -19, -17, 33, -34, 0, -31, 51, 38, -15, 
    -13, 38, 31, -5, -3, -1, -6, 24, 47, -41, 
    6, 9, 36, 26, -45, 28, -47, -49, -22, -26, 
    43, -19, -30, 49, -12, -31, 39, -40, -20, 29, 
    -15, -6, 46, 56, -13, -64, 49, -16, 65, -54, 
    -43, -14, 16, 23, -16, 16, -47, -7, 0, -30, 
    60, 16, 50, -20, -24, -67, -22, -5, 1, 10, 
    -46, 29, 43, -36, -6, -48, -6, 47, -20, 56, 
    -32, -52, 26, -33, -42, -26, -20, 24, 56, 6, 
    -2, -45, 44, -31, 59, 41, -3, 4, -23, -1, 
    21, -64, -14, 24, 48, 23, 37, 10, 21, -17, 
    26, -32, -16, -30, -8, 42, -6, -13, -48, 14, 
    -16, -19, 5, 38, 41, 52, -5, -15, 27, 28, 
    41, -10, -31, -26, 58, 28, -25, -41, -20, -86, 
    -9, -11, 34, 45, -33, -57, -24, 31, 36, -10, 
    74, -11, 30, 29, -30, 80, 79, 5, 28, 33, 
    -9, 27, 1, -30, 5, 36, 26, -27, 3, -55, 
    32, 19, 53, 39, 36, -9, 44, -64, 32, -43, 
    30, -25, 36, -32, -47, -28, 26, 19, 29, 13, 
    -45, 74, 37, 17, -3, -35, -7, -33, -14, -58, 
    16, 35, 20, -14, -45, 51, -25, -11, -22, 32, 
    -12, 22, -9, -34, 21, -88, -33, 18, -37, 24, 
    46, -18, -16, 11, 69, -4, 38, -24, -38, 22, 
    -59, 14, -12, -18, 13, 21, 47, -19, -41, 35, 
    38, 17, -4, 42, 17, 73, 24, -29, -7, -43, 
    4, 23, 63, -45, 19, 21, -17, 25, -49, 10, 
    28, -5, -5, 17, -27, -47, -44, -18, 43, 10, 
    34, 54, -30, -32, -6, 51, -15, -46, 15, 56, 
    5, 69, -56, 6, 61, 53, 8, 3, 30, 4, 
    10, -4, 47, 86, 30, 25, 13, 23, 19, -2, 
    -20, 20, 50, -12, -3, -38, 31, 31, 3, 4, 
    33, 20, -30, -29, -27, 19, -17, 27, -54, -49, 
    25, -78, -31, -13, -7, 70, -34, -40, 28, -31, 
    -61, -7, -3, 42, -17, 51, -61, 10, 38, 59, 
    -19, 5, -42, -22, -31, 27, 32, 29, 19, 35, 
    -12, -19, -30, 27, -28, -45, -60, -7, 38, 11, 
    34, -4, -4, -7, -29, -4, -12, 41, 17, 5, 
    -24, 34, -26, -86, 59, 3, 40, 51, 8, 2, 
    -38, 5, 24, -22, -16, 14, -21, -42, -6, -27, 
    34, 32, -9, 10, 33, 7, -39, -19, -13, 64, 
    22, 3, -10, 12, 37, 3, -28, 24, 37, 13, 
    7, -40, -58, 31, -53, -40, -12, -42, 25, 11, 
    -32, 49, 49, -17, -8, 9, 1, -47, 16, 56, 
    20, -17, 54, -25, -43, -45, -24, 49, -69, 5, 
    -11, 17, 11, 18, 45, 10, 47, 44, 28, 16, 
    -33, 37, 1, 29, -8, 44, -33, 28, 16, -29, 
    21, 46, -34, 6, -1, -22, 20, 28, 23, 14, 
    11, 25, 18, -3, -28, -3, 6, -17, -35, -4, 
    -30, 10, -17, -3, 0, 15, 12, -20, 21, 26, 
    -40, 39, -27, 40, 9, -3, 25, -36, 10, -21, 
    -8, -66, -37, 9, -38, -21, 35, 52, -7, 52, 
    18, -8, 39, 20, 54, -30, 5, -9, 6, -44, 
    44, 3, 33, 12, 1, 15, -36, 16, 15, 24, 
    18, -29, -23, 12, -16, 37, -60, 5, 3, -23, 
    -17, 21, -32, -8, 27, 12, 40, -41, -4, -3, 
    -35, 7, 3, -49, 1, 34, -3, -3, -9, -1, 
    41, 59, 0, 67, 33, -13, 0, 46, 35, 32, 
    -1, -61, 34, 46, -11, 16, 5, 27, 41, 58, 
    22, 51, 37, 92, -5, -48, -2, -15, -14, 7, 
    -31, 0, 17, -31, -32, 8, 8, -30, 19, -4, 
    52, -21, -26, -8, -3, -1, -2, -29, -41, -44, 
    -32, -14, 8, 2, -10, 0, -19, 11, 9, -65, 
    -72, 30, -54, 18, 39, 24, -21, -61, -28, -10, 
    -11, 24, 35, 74, 27, 65, -48, 16, -41, 9, 
    -16, 34, -46, 12, 67, -45, -39, -3, -19, -16, 
    -16, 3, -8, -34, 38, 58, -24, -15, -26, 53, 
    1, -22, 44, -35, 17, -5, -17, 11, -56, 51, 
    -19, -30, -20, -17, 27, -36, 30, 48, -20, -14, 
    48, -32, -42, -22, -25, 0, 15, 36, -24, -22, 
    -37, -28, -16, 79, -21, 23, -28, 5, 67, -30, 
    30, 10, -9, 14, 24, 42, 0, -30, 9, -81, 
    -63, -1, 27, -18, -11, -33, 18, -51, 10, 9, 
    28, 51, 28, 31, 0, -18, -8, 14, 12, 18, 
    51, -2, -46, 39, -90, 23, 33, 32, -18, -57, 
    18, -35, -19, -4, -44, -47, -24, 29, 49, -57, 
    -4, 35, 36, -29, 35, 14, 12, -41, 34, 28, 
    9, -38, -1, -13, -14, 36, -24, 34, 56, 49, 
    18, -34, -25, -43, -34, 25, 25, -11, 50, 8, 
    8, 13, -35, -26, 41, -41, -56, -20, 7, 10, 
    -35, 6, 16, -40, 8, -47, 10, -20, 50, 0, 
    -79, -35, -22, -3, 30, 41, 24, 2, 24, -19, 
    -34, -21, -41, -16, -25, -39, 4, -28, 35, -10, 
    -82, -60, -43, 19, -38, -17, 6, 45, 73, -12, 
    16, 24, 48, 73, 3, -26, -17, 77, -26, -48, 
    48, -16, 15, 8, -12, -50, -11, -34, 36, -21, 
    47, -51, -33, 4, -14, -27, 25, -8, -6, -39, 
    5, -9, -30, 15, -32, -18, -2, 8, -26, -24, 
    -22, 14, -2, -55, 44, -7, 29, -55, 14, -2, 
    -2, 18, 22, -23, 59, 97, -70, -41, 33, -8, 
    -31, 14, 45, -13, 51, -5, -32, -68, 56, 28, 
    -22, -10, 5, -28, 44, 31, -13, -7, -17, -44, 
    36, -13, -9, 57, 0, -21, -21, 41, 22, -22, 
    30, 30, 13, 30, 33, 23, -34, 26, 2, 50, 
    29, -14, 34, -43, 32, -65, -19, 38, 79, -27, 
    -14, -24, 34, -51, 10, -40, -64, 79, -38, -15, 
    2, -12, 14, -24, 26, 11, 40, -46, 0, -6, 
    -61, 15, 18, 12, -46, -39, 1, 35, -3, 43, 
    74, 32, 5, 9, 42, -34, -15, -52, -76, 32, 
    -40, 54, -32, -24, 59, -55, 37, -53, -35, -19, 
    23, 5, -9, -13, -8, -20, -16, -17, 9, -9, 
    12, 47, -11, 17, 51, 27, -17, 20, 29, 9, 
    -35, -12, -14, 64, -8, -19, 14, 50, 25, -44, 
    32, -1, 29, -1, 14, -12, -22, 27, 30, -31, 
    5, 2, -41, -27, -22, 69, 38, -5, -24, -7, 
    70, 20, 50, 0, 27, -41, 39, -21, -8, 49, 
    59, 36, 47, 27, -9, 54, 28, 8, 23, 19, 
    -5, -56, 0, 24, -48, -3, -3, -64, -42, -6, 
    -45, -73, -54, -51, -76, 33, -32, 54, 39, -39, 
    21, 44, 9, -29, 9, 36, 24, 26, -38, -39, 
    -18, -9, 69, 71, -2, 26, 83, -7, 3, 34, 
    28, -59, 74, -15, 7, -30, 17, -44, -1, -36, 
    -6, 31, 29, -3, 17, -75, 64, 28, -24, -58, 
    71, -62, 14, -26, 41, -23, 22, 11, 67, -36, 
    8, 1, 2, 44, 26, -16, -27, 53, 12, -40, 
    38, -98, 76, 11, 35, -35, -53, 72, 34, -8, 
    -12, -15, 47, 77, -4, -24, 14, -26, 9, 57, 
    -70, 21, -10, -22, -54, 2, 37, 43, -5, 9, 
    21, 28, -25, 27, 29, -47, 0, -1, 34, -39, 
    22, -18, 8, -27, -34, -37, -52, 50, 21, 29, 
    -4, 53, -19, 12, 36, -53, -14, 56, -6, -9, 
    -46, 10, 48, 28, 31, 33, -2, 42, 46, -22, 
    -40, 2, 28, -31, 20, -77, -2, -11, 47, -7, 
    -23, 12, -8, 14, 8, 0, 32, -9, -1, -31, 
    45, 5, 29, 59, 25, -25, 10, 12, -7, 6, 
    -32, 17, -29, 31, -22, 17, -34, 53, -23, 10, 
    35, 13, 5, 29, -2, 18, -4, 13, -19, 80, 
    36, -50, -39, 21, -17, 36, 68, 10, 59, 16, 
    38, -48, 41, 70, 15, 62, -24, 19, -63, 12, 
    94, 13, -12, -3, 2, 33, 10, -18, -14, -44, 
    28, 15, 3, 9, -65, -20, 23, 85, 39, 13, 
    -8, 35, -10, -11, -14, 25, -58, -28, -28, -38, 
    63, 20, 10, 68, -46, -29, 57, -4, 64, 19, 
    24, -30, 
};
const TfArray<1, int> tensor_dimension9 = { 1, { 8192 } };
const ALIGN(8) int16_t tensor_data10[512] = { 
    15399, 15399, 15399, 15399, 15399, 15399, 15399, 15399, 15399, 15399, 
    15399, 15399, 15399, 15399, 15399, 15399, 1519, 1314, 1348, 1117, 
    1660, 1480, 1068, 1544, 1352, 1701, 1743, 1374, 1925, 1812, 
    1886, 1436, 15399, 15399, 15399, 15399, 15399, 15399, 15399, 15399, 
    15399, 15399, 15399, 15399, 15399, 15399, 15399, 15399, 1968, 1254, 
    1258, 1865, 1431, 951, 1314, 2329, 1638, 1451, 1465, 1756, 
    1341, 786, 2023, 1662, 15399, 15399, 15399, 15399, 15399, 15399, 
    15399, 15399, 15399, 15399, 15399, 15399, 15399, 15399, 15399, 15399, 
    1848, 1606, 1166, 1030, 1634, 1510, 1205, 2487, 1630, 1891, 
    961, 1668, 1363, 1927, 1639, 1897, 15399, 15399, 15399, 15399, 
    15399, 15399, 15399, 15399, 15399, 15399, 15399, 15399, 15399, 15399, 
    15399, 15399, 1739, 1173, 1803, 1239, 1602, 886, 2030, 1109, 
    1596, 1448, 966, 1724, 1329, 1617, 1777, 889, 15399, 15399, 
    15399, 15399, 15399, 15399, 15399, 15399, 15399, 15399, 15399, 15399, 
    15399, 15399, 15399, 15399, 1502, 1512, 1395, 1419, 1470, 1023, 
    2444, 1423, 1914, 1288, 1581, 2179, 1269, 1371, 1365, 1025, 
    15399, 15399, 15399, 15399, 15399, 15399, 15399, 15399, 15399, 15399, 
    15399, 15399, 15399, 15399, 15399, 15399, 1320, 1483, 1711, 1604, 
    991, 974, 1365, 2262, 1711, 1376, 2256, 1158, 2506, 1579, 
    1064, 1624, 15399, 15399, 15399, 15399, 15399, 15399, 15399, 15399, 
    15399, 15399, 15399, 15399, 15399, 15399, 15399, 15399, 1778, 1523, 
    1716, 1312, 1508, 797, 1968, 1963, 1378, 1797, 1245, 1521, 
    1277, 1019, 993, 921, 15399, 15399, 15399, 15399, 15399, 15399, 
    15399, 15399, 15399, 15399, 15399, 15399, 15399, 15399, 15399, 15399, 
    1342, 1716, 1218, 1645, 1060, 399, 1331, 2083, 1545, 1803, 
    1923, 1944, 1891, 1401, 1372, 1540, 15399, 15399, 15399, 15399, 
    15399, 15399, 15399, 15399, 15399, 15399, 15399, 15399, 15399, 15399, 
    15399, 15399, 1169, 1624, 1038, 1404, 1179, 1453, 1344, 1363, 
    1149, 1863, 1839, 1728, 1288, 1602, 2122, 1530, 15399, 15399, 
    15399, 15399, 15399, 15399, 15399, 15399, 15399, 15399, 15399, 15399, 
    15399, 15399, 15399, 15399, 2305, 694, 1600, 1722, 1696, 1604, 
    1478, 1350, 1200, 1944, 1557, 2384, 1241, 1091, 1859, 1884, 
    15399, 15399, 15399, 15399, 15399, 15399, 15399, 15399, 15399, 15399, 
    15399, 15399, 15399, 15399, 15399, 15399, 1200, 1790, 1735, 1839, 
    2284, 1816, 1427, 998, 1673, 1551, 698, 1019, 1510, 1658, 
    1748, 1288, 15399, 15399, 15399, 15399, 15399, 15399, 15399, 15399, 
    15399, 15399, 15399, 15399, 15399, 15399, 15399, 15399, 1198, 2457, 
    1540, 1472, 1579, 1951, 1748, 1668, 1224, 1572, 1844, 897, 
    1886, 572, 1393, 1525, 15399, 15399, 15399, 15399, 15399, 15399, 
    15399, 15399, 15399, 15399, 15399, 15399, 15399, 15399, 15399, 15399, 
    1923, 1585, 1628, 2055, 1265, 1846, 1572, 1280, 1386, 1107, 
    1188, 1423, 1626, 1209, 1339, 2506, 15399, 15399, 15399, 15399, 
    15399, 15399, 15399, 15399, 15399, 15399, 15399, 15399, 15399, 15399, 
    15399, 15399, 2448, 1910, 1290, 1807, 1893, 1743, 1557, 1453, 
    1487, 1446, 1925, 1357, 1386, 1812, 1816, 965, 15399, 15399, 
    15399, 15399, 15399, 15399, 15399, 15399, 15399, 15399, 15399, 15399, 
    15399, 15399, 15399, 15399, 1292, 1784, 1408, 1318, 1504, 1325, 
    1015, 2705, 1395, 1658, 1671, 1951, 1583, 1547, 1515, 1282, 
    15399, 15399, 15399, 15399, 15399, 15399, 15399, 15399, 15399, 15399, 
    15399, 15399, 15399, 15399, 15399, 15399, 1933, 2258, 1997, 1743, 
    1594, 1929, 1649, 1380, 2359, 1818, 1372, 1365, 1882, 1861, 
    880, 1295, 
};
const TfArray<1, int> tensor_dimension10 = { 1, { 512 } };
const ALIGN(8) int8_t tensor_data11[16384] = { 
    -7, -8, -31, 7, 17, -2, 0, 7, -12, -32, 
    -47, -4, 24, 21, 17, 8, 9, -14, -13, -18, 
    -16, -1, -29, -6, 32, 22, -10, -36, 35, 17, 
    -15, -7, 33, 40, 3, -26, -13, -33, -49, 25, 
    -32, -5, -23, -23, 4, -12, -19, 27, -6, -24, 
    -36, 24, -44, 15, -29, -5, 16, 27, -8, -2, 
    -80, -1, 16, -13, -28, 22, -13, -33, -35, 4, 
    -10, 23, -32, -41, 0, 21, 23, 12, -17, -24, 
    -18, 22, 3, -21, 27, -11, 5, 12, 8, -1, 
    -29, 27, 11, -20, 48, -41, -6, 5, 5, -34, 
    25, -3, 7, 4, 6, -23, -9, -7, -28, -6, 
    25, -15, 7, 52, 32, -4, 7, 2, -12, -28, 
    5, -19, 7, -1, -12, -31, 7, -39, 54, 23, 
    -28, 14, -14, -2, -39, -68, 62, 13, -25, 16, 
    -7, -33, -18, 20, -34, 61, 8, 33, 10, 13, 
    -6, 2, -41, 4, 20, -2, 18, 22, 3, 42, 
    -27, -55, 24, 40, 40, -8, 20, -1, 18, 37, 
    -31, 40, -16, 17, 72, 12, 8, -53, 30, -93, 
    15, -54, -7, 0, 74, -20, -33, 38, 30, -19, 
    -33, 1, -20, -3, 25, 29, 25, -33, 43, 7, 
    41, 59, -32, 13, -3, 52, -27, -12, 22, -37, 
    42, -27, 7, 13, -5, -41, 5, -25, -1, 1, 
    57, 46, -12, 1, -30, -29, 10, 1, 20, 13, 
    9, 23, -32, 47, 39, 41, 17, 21, 5, -33, 
    56, 0, 13, -58, -47, -45, 32, -40, -63, 11, 
    2, 11, 15, 10, 15, 13, 11, 15, -3, 2, 
    -32, -7, 18, 0, 0, 23, 7, -5, 35, -14, 
    -40, -11, 21, 7, 23, 21, 7, 4, -12, 36, 
    79, -2, 4, 4, -36, 2, -11, -18, 8, -69, 
    -12, 44, 20, -3, 10, -4, 12, 33, 50, -1, 
    -3, 24, 47, 17, 34, -37, -22, -43, 5, -17, 
    3, 29, 16, -26, 24, 35, 19, -15, -16, 55, 
    -6, -13, 0, 1, -33, -16, 6, -44, 3, 9, 
    -31, -1, -35, -16, 49, 79, -1, 10, -28, 30, 
    -4, 5, -5, 48, 14, -6, 16, -7, -31, 8, 
    16, -4, -11, -30, -7, 14, 6, -16, -5, 17, 
    -27, 5, 3, 3, 25, 48, 45, 12, -31, -16, 
    -29, 37, 44, -35, 22, 21, 46, -44, 19, 15, 
    40, 39, -10, 29, 35, -13, 9, -69, 19, 3, 
    9, 34, -48, -1, -12, -5, -34, -15, -43, 21, 
    49, 41, -60, 22, -9, -21, -51, 6, 9, 34, 
    -51, 6, -62, 16, -32, -19, -34, -9, -29, 3, 
    -36, -1, -29, 19, 46, 13, 5, -32, -2, -3, 
    20, 39, -6, -36, -15, -59, -20, 22, -7, -20, 
    -15, -33, 8, -3, -8, 0, -22, -9, 4, -2, 
    3, 37, 8, 21, 28, -17, -14, -15, -44, 35, 
    -43, 0, -21, 12, 2, 6, 27, 6, -25, 1, 
    -5, 15, 6, -1, 24, 32, 35, -20, 8, 4, 
    -42, 32, 29, 5, -3, -48, -6, -12, 21, -6, 
    1, 11, 21, -20, -21, -28, 3, 39, -15, 23, 
    -14, 68, -17, -47, -26, 29, -47, 12, -47, -7, 
    63, 41, 7, 27, -26, -3, 4, -41, 14, 23, 
    17, 31, 6, 5, 30, 49, -7, 17, 1, 13, 
    -9, 15, -31, -17, 39, -6, -11, 14, -8, -7, 
    -10, 46, 14, -20, 61, -38, 35, 18, 4, 17, 
    -27, 15, -23, -18, 47, -58, -18, 16, -51, -4, 
    -71, 8, 19, -28, -35, -39, 29, -16, 1, 4, 
    1, -45, 60, -44, -71, 15, -24, -62, -8, 0, 
    10, -5, 14, -33, -3, 64, 54, -12, -17, 24, 
    3, -56, 9, 12, 1, -7, 29, -16, -12, -9, 
    11, 7, -33, -39, -50, -20, -22, -32, 22, 22, 
    -55, 24, 0, -19, -27, -51, -13, -1, 6, 17, 
    18, -38, -3, 15, 4, -26, 38, -10, -6, 18, 
    -40, -48, -34, -14, 18, -17, -14, -4, -41, 7, 
    18, -11, -37, 10, 41, 21, 54, 60, 18, -18, 
    2, -17, -46, 16, -6, -5, -52, 19, 12, -53, 
    -41, 14, 16, 3, 9, -16, 3, -31, -44, -5, 
    -21, 27, -20, 5, -6, 3, 12, -11, -17, -40, 
    4, 35, -27, -28, -47, 11, 26, -52, 13, -15, 
    -8, 49, 12, -10, 40, 20, 6, -4, 26, 31, 
    36, -8, 26, -29, -2, 42, -20, -22, 8, 35, 
    22, -3, 8, -4, 18, 3, -5, 37, 58, -4, 
    38, 0, 18, 53, 75, 2, -36, 9, 30, 31, 
    -7, 14, 14, 18, 33, 9, -38, 11, 54, -19, 
    -12, 75, -28, 33, -51, -46, 4, 29, 5, 0, 
    -16, -28, -34, -4, -1, 35, -7, 15, 1, 12, 
    -7, 12, -14, 7, -30, 21, -2, -6, 7, 3, 
    12, 38, 4, -37, -31, 13, 16, -22, 15, -56, 
    0, 14, -3, 11, -19, -4, -13, -1, -32, -36, 
    -18, -15, 14, 52, 19, -17, -1, 3, 58, 8, 
    -91, 9, 0, -48, -3, 34, -11, -60, -28, 13, 
    19, -26, -18, 42, 8, 2, 37, 37, -51, -7, 
    53, -14, 38, 22, 10, 39, 1, -3, -55, -42, 
    32, -47, -23, 16, 44, -12, -7, 58, 30, 39, 
    10, 22, 33, -7, -25, -43, 49, -9, -10, -1, 
    49, -3, -6, 14, 32, -33, 25, -31, -15, -24, 
    -28, 0, -11, 13, 3, -16, -5, -43, -7, -28, 
    -7, 12, -12, 37, -18, -37, 8, 21, 32, 35, 
    -13, 15, 25, -37, 57, 4, 47, 0, 15, 26, 
    -41, 34, -15, -75, 89, -66, 38, 1, 3, -36, 
    -7, -8, 8, -3, -10, 34, -18, 21, -15, -7, 
    -15, 41, 13, -1, 49, -16, 1, 31, -10, 0, 
    19, -39, 5, -9, 52, 24, -68, 67, 34, 9, 
    23, 17, -10, 5, -29, 39, -74, -7, 23, -14, 
    -53, -13, 16, -37, -37, 62, -54, 24, -11, -6, 
    36, 32, -6, 33, -6, 3, 18, -41, 6, 17, 
    28, 23, 18, -3, 13, -12, -2, 1, -13, 4, 
    12, -9, -24, 14, 37, 14, -29, 0, -30, 10, 
    -10, -15, -22, -7, -11, 16, 18, 29, 9, -11, 
    0, -14, -5, 6, -65, 23, -35, 3, 40, -10, 
    -16, 53, -14, 5, 11, 21, 8, 1, -12, 6, 
    41, -7, -11, 5, -38, 24, 0, 6, 12, 5, 
    49, -62, -29, 39, 21, -46, -19, -2, -35, -26, 
    -27, -28, 3, 10, -9, -44, 34, -1, -16, 26, 
    -47, -15, 20, 23, 22, 8, 13, 15, 12, 8, 
    5, 34, 4, 16, 39, 56, 27, 29, 26, -9, 
    21, 23, 47, 16, 19, -37, 6, 58, -9, 63, 
    -16, 1, -5, 29, -7, -3, 3, 7, 18, 8, 
    16, -28, -23, -61, 37, 4, 9, 3, 47, 41, 
    -10, -55, 28, 2, -61, -6, -3, -15, -27, 5, 
    18, 14, -61, -18, 29, 22, -12, 14, -36, 2, 
    -3, -11, 6, 10, 2, 9, 6, 1, 15, -29, 
    -28, -23, 61, -11, -16, 34, -4, -24, 36, 57, 
    -2, 11, -13, -4, 36, -53, 61, -20, 19, -43, 
    18, -3, 0, -5, -30, 5, -2, 70, 53, 18, 
    9, -39, 14, -28, -2, 59, -24, 37, 15, -53, 
    6, 15, 6, -14, -16, 2, 49, 29, -7, -3, 
    10, -51, 40, -13, -1, 8, -8, -9, 51, -32, 
    43, 4, 47, 14, -8, 20, 9, -68, -3, -30, 
    -3, 0, 17, 20, -27, 33, 6, 11, 0, -24, 
    -18, 29, -39, -47, -14, 13, -23, -52, -1, -1, 
    7, 23, -23, 13, -33, 61, 35, -22, 36, 16, 
    -9, 37, -3, 8, -24, 10, -31, -26, 27, 33, 
    -6, 36, 6, 19, -32, -1, 14, 9, 31, 2, 
    6, 4, -14, -18, 16, -12, 35, 32, 0, -8, 
    4, 72, -12, -20, 3, 1, 4, 0, -16, -42, 
    50, -12, -33, 63, 19, -11, 26, 8, 32, -30, 
    11, 21, -30, 0, 32, -16, 36, -16, -30, -15, 
    -26, -37, -3, 66, -27, 8, -18, -28, 45, 27, 
    5, 34, 18, 44, 38, 18, -25, -82, 31, -7, 
    13, 10, 30, 1, 48, -33, 61, 17, 15, 25, 
    -23, -20, -24, 40, -8, -61, 0, 0, -25, 48, 
    -34, -23, 0, -30, -14, 28, -54, -19, 37, 84, 
    -64, 57, 23, 12, -96, -9, -53, 18, 27, -18, 
    -84, -24, -18, -19, 22, -34, 25, 33, -10, 48, 
    39, -28, -48, -25, 49, 22, 15, -13, 64, 25, 
    18, -30, 2, 2, -55, 32, 2, 13, -6, -22, 
    21, -1, 24, 22, 4, -25, 25, 8, 6, 5, 
    -44, 19, 28, 54, 11, 0, -14, -9, -14, -2, 
    15, -38, 7, 51, -23, 5, -9, -16, -3, 6, 
    -1, 45, 18, 3, 10, -58, 0, -3, 16, -13, 
    -17, 32, -34, -15, -5, 29, -31, 39, 18, -22, 
    -31, 8, -11, -9, 20, -16, 36, 49, 32, 15, 
    23, 55, -28, 12, 28, 49, -17, -14, 17, 20, 
    23, -58, 14, 54, -24, -13, -34, -7, 38, -3, 
    71, 7, 1, -33, 6, 19, 14, 11, 27, -60, 
    50, 14, 26, 28, -52, 13, 13, 39, -21, 1, 
    5, -27, -52, -27, -1, 40, 9, 9, 7, 36, 
    -2, 66, 42, 1, -5, -13, 6, -30, 25, -28, 
    14, -89, 4, 45, -15, 10, -15, 46, 50, 8, 
    26, -5, 27, -20, -40, -79, -31, 88, -23, -12, 
    1, 40, 61, -1, -34, 6, 68, 54, 23, 32, 
    20, -81, 42, -27, 58, -31, 11, 11, 34, -45, 
    17, -8, 97, 21, -37, 2, 8, 5, 14, 32, 
    6, -2, -20, 29, 4, -22, -1, -48, 1, 37, 
    -69, -10, -23, 7, -12, -56, -62, -7, 11, -11, 
    43, -5, -30, -9, 32, 7, -24, -19, 20, -47, 
    -10, -8, 5, 9, 36, 59, -4, 1, -8, -6, 
    6, -31, -14, 5, 4, 37, -13, 7, 17, 32, 
    3, -36, -9, -4, 9, -15, 22, -22, -31, -44, 
    27, -20, -6, -3, 17, -30, 20, -44, -21, -15, 
    -3, -3, -19, -52, -14, -4, 17, -34, 23, 23, 
    -2, 22, 4, -33, 18, -14, -2, -28, 36, 23, 
    -12, 21, 5, 54, -5, 8, 13, -2, 14, -23, 
    -9, 16, -14, 45, 1, 31, 23, 19, 36, 13, 
    0, -28, 73, 36, -13, 22, 15, -24, 18, -19, 
    2, 21, -34, 5, 3, 26, 36, 3, 39, -37, 
    -19, 58, 3, -12, -22, 0, 13, 16, 50, -22, 
    17, -11, -44, 10, -6, -57, 6, 46, 43, -2, 
    -5, 23, 49, 14, 44, -25, 0, -10, 8, 57, 
    -36, -63, -21, -1, 11, 2, -28, -2, -23, 5, 
    -30, -6, 4, 1, -26, 5, 4, -1, -38, -21, 
    7, -5, -1, -9, 15, 8, -26, 34, 12, 28, 
    -4, -25, -17, -32, 25, -32, -18, -2, -7, 2, 
    -18, -4, 15, 12, -15, 29, 0, 9, 7, 29, 
    24, -17, -14, -22, -10, -31, -10, 28, 9, -26, 
    7, 42, -4, 20, 29, 58, -31, 97, -7, 39, 
    4, 42, 2, 11, 0, -1, -7, -20, -61, -63, 
    3, 4, 51, -31, 16, -6, -34, 2, -29, -1, 
    19, 8, -15, 67, 29, 16, 91, 51, -30, 27, 
    16, -2, 26, -24, 5, 8, -29, -34, 40, 100, 
    -41, 31, 31, -19, 37, 51, 34, 69, -57, 49, 
    -52, -39, 71, -57, -11, -16, 8, 48, -13, -76, 
    16, 4, 12, -20, -31, 42, -4, 0, 28, 16, 
    -72, -50, 38, -61, -12, -4, -17, 21, -27, -3, 
    0, -45, 42, -75, -63, 43, 43, 15, 34, -13, 
    -16, 1, 7, -11, -31, -44, 1, 21, 3, -13, 
    20, -25, -26, 12, 42, -23, -24, -2, 16, -11, 
    31, -10, 26, -58, -19, 40, -16, 1, 39, -8, 
    11, 51, -33, -38, 26, 3, 8, -10, -11, 29, 
    -49, -15, -39, -16, 2, -42, -22, -39, -19, 5, 
    42, -6, -5, -20, 43, -23, -12, 41, -3, 16, 
    6, 20, 35, 57, 45, -31, -4, -22, 33, -30, 
    -1, -41, 39, 40, 15, -7, -10, 21, 10, -13, 
    -30, -15, 40, -26, -8, 37, 13, -34, 10, -31, 
    17, 13, 27, 41, 11, -40, 18, 35, -1, 25, 
    27, 7, -6, 21, -26, -21, 61, -27, 3, 99, 
    -77, 49, 40, 0, 38, -33, 5, -16, -9, 7, 
    -24, 34, 47, -20, -44, 49, 3, -46, 16, -35, 
    7, -37, -36, 45, -4, 47, 50, 48, 39, 19, 
    -1, 21, -31, 8, 40, 7, -1, 15, -12, -56, 
    11, 43, 11, 30, 97, -20, -22, 42, -11, 10, 
    46, -80, -41, -25, 63, 0, 42, 34, -50, 30, 
    17, -38, 81, 44, -68, 55, 34, -60, 78, -11, 
    28, -20, -20, 83, -9, 57, 80, -81, 38, -21, 
    -34, -12, 0, 31, -9, 9, -5, -60, -31, -22, 
    68, 25, 20, -6, -11, 40, -61, 22, -11, 18, 
    8, 61, 25, -34, 11, -17, -17, 73, -49, 15, 
    -1, -84, 11, 89, -19, 1, 12, -22, 15, 16, 
    0, 0, 49, -10, 11, -8, -6, -3, 13, -50, 
    21, -21, -50, -4, -2, -27, 64, 33, 63, 33, 
    -30, 2, -55, -42, -4, 43, 3, 32, -5, 17, 
    21, 48, -7, -25, 15, 41, 24, 30, 18, 9, 
    -20, -25, 6, -6, 55, 25, -21, -34, 43, 4, 
    -10, 48, -30, 24, 4, 8, -11, -12, 18, 36, 
    13, 10, 9, -29, -42, -39, -14, -28, 28, -1, 
    -24, 16, -50, -16, -9, 27, -44, -11, 52, -3, 
    0, -50, 25, 31, 4, 28, 17, -1, 32, -2, 
    -42, -19, 34, -11, -7, -5, -34, 6, 28, 6, 
    8, 25, 22, 39, -12, -12, -20, 4, 9, -1, 
    -13, 8, 0, -10, -25, 9, 7, 46, 25, 47, 
    31, -27, 21, 34, 0, 21, -27, -34, 11, 9, 
    -36, -58, 3, 8, -2, 33, -27, 55, -26, -13, 
    -30, 3, 0, 68, -38, 1, -24, 8, -13, -38, 
    -34, -30, 27, -2, -46, -23, 20, 9, -8, 22, 
    29, 52, -16, 31, 18, 11, 7, -26, 6, -22, 
    -8, 15, 36, 21, 11, -30, 39, 56, 17, -22, 
    -9, -3, 3, -15, -45, 25, 1, 34, 19, -8, 
    -36, 20, 11, -18, 9, -5, 22, 12, -6, 3, 
    2, -20, 44, -23, -41, 22, 3, 11, -30, 20, 
    8, -24, -35, 10, 7, -23, -20, 28, 4, 11, 
    -6, -20, 51, -15, -17, 27, 35, 55, -8, 57, 
    -6, -34, 32, 21, -40, -15, -3, -7, 34, -19, 
    -19, -8, 28, 11, -34, -20, 27, -13, -47, 3, 
    -3, -9, 59, -44, 11, 19, 36, 25, -6, -3, 
    -5, -9, 38, -12, -16, 28, -33, 45, -12, 30, 
    -44, -27, -27, -15, 0, 14, -11, 50, 14, -71, 
    -18, 91, 13, 9, 26, -34, 74, 42, 17, -1, 
    -8, 4, 101, 50, 25, -32, 35, -58, 20, -43, 
    13, -84, 29, -1, 61, 28, 79, 24, -11, 8, 
    -25, -38, 0, 4, -3, -33, -30, 36, -10, 33, 
    22, -36, -8, 43, 21, -35, 29, -35, -35, -46, 
    -20, -15, 18, -16, 50, -25, 8, 18, 26, 33, 
    -1, 13, -3, 7, 20, 2, 34, 17, -26, -4, 
    41, 5, 17, 3, 12, 30, 24, 46, -5, -45, 
    16, -37, 37, 9, 53, 25, 45, -38, 57, 27, 
    -13, 88, -54, -13, 45, 24, -10, -13, 26, -11, 
    -33, -10, -38, -6, -15, -32, 42, -20, 28, 3, 
    13, 16, -68, 48, -18, 31, 11, 26, 2, 5, 
    -9, -18, -3, -25, 21, -30, -21, 41, 17, 22, 
    -10, 11, 14, 30, -27, -1, 1, 15, 12, -12, 
    5, -2, 10, -8, 25, -31, -17, 29, -42, 4, 
    -14, 18, -30, 16, 6, 5, -13, 18, -41, 0, 
    4, -12, -7, -18, -21, -14, 13, -47, 30, 11, 
    18, -12, 17, -17, 12, -12, -3, -8, 18, -11, 
    -6, -5, -58, 44, -12, 43, -26, -20, -44, 24, 
    22, -34, -7, 13, -23, -64, -10, -10, -13, -20, 
    -8, -28, -10, -28, 13, 9, 20, 7, 23, 11, 
    -7, 42, -6, 0, 20, 12, -28, -63, -19, -34, 
    -61, 21, -33, 44, -16, 0, 28, 79, -14, 29, 
    21, -8, 22, -31, -9, 17, -76, -22, 11, 5, 
    -22, -41, 18, -70, 37, 25, 19, 9, 2, 17, 
    -34, 24, 29, -23, -25, 41, 4, 20, 56, 4, 
    -33, 22, 30, 13, 16, -17, 9, 3, 35, -30, 
    45, -28, 7, 17, -14, -6, 6, 13, 15, 19, 
    -10, 7, 8, -29, 77, -14, -31, -20, 19, -10, 
    -5, -30, 7, 15, -63, -10, -14, -30, -18, 25, 
    -2, -33, -33, 7, 67, -78, 49, -26, 20, 0, 
    -37, 9, 20, -12, 58, -17, -1, 19, 42, -61, 
    18, 25, 68, -2, -6, -41, -8, -37, -7, -16, 
    31, -36, 0, -18, -33, -16, 20, -23, -21, 24, 
    -25, -18, -13, 4, 42, 3, 27, -17, 6, -9, 
    23, -58, -31, -46, -8, -5, 38, -18, 11, -52, 
    -32, 14, -1, -13, -9, -1, 54, 3, 23, -15, 
    33, 52, -18, -43, 33, -55, 33, -6, 75, 2, 
    -19, 12, -14, 33, -3, -2, 41, 16, -4, 7, 
    20, -31, -31, -28, 81, -16, 46, 4, -12, 16, 
    22, 23, -17, -10, 29, 17, 13, -5, 19, 34, 
    -17, -65, 13, -12, -1, 8, 4, -5, -6, -23, 
    21, 38, -51, 28, 3, 19, -16, -11, 19, 42, 
    -19, 46, 24, 17, -32, -55, -10, -17, 58, -8, 
    -8, -25, 4, 10, -4, 7, -5, -1, -31, -26, 
    4, -27, -21, 13, 26, 45, 50, -30, 21, 35, 
    21, -3, 14, -30, 18, -55, -32, 17, -29, -6, 
    10, -6, -41, 11, 10, 61, 48, -25, 0, -19, 
    26, 18, 16, 17, 3, -23, -17, -39, -19, -1, 
    -70, -53, -29, 14, 42, -42, -2, -9, -20, -1, 
    15, 1, -32, 13, -4, -33, -12, -10, -12, -8, 
    -24, 25, 9, -3, -11, -33, -60, 26, 23, -7, 
    22, 25, -13, 38, -56, 29, 16, 35, -71, -39, 
    -15, -44, 43, -24, -26, -7, 6, -2, 15, -33, 
    49, 7, -5, -8, 6, -26, 2, -19, 38, 25, 
    54, 58, -24, -29, 20, 16, -6, 8, -37, -7, 
    -27, 10, -6, -54, 14, 22, -12, -19, 22, 36, 
    0, -10, 11, -13, -61, 0, 18, 7, 20, 24, 
    -36, 3, -19, -2, 41, -11, 10, 7, 10, -17, 
    -10, 3, 11, 19, 35, -36, 31, 24, -46, 5, 
    -9, 21, -25, 4, 28, -40, -30, -38, 6, -10, 
    30, -52, 2, -3, -23, -5, -10, -22, -45, -16, 
    -31, 31, 21, -48, 21, -7, 32, 29, -10, -51, 
    -47, 6, -19, -45, 19, -24, -46, -39, 2, -3, 
    26, 1, 2, -2, -30, 43, 46, 24, -9, -5, 
    -30, -22, -26, 8, -1, -40, -26, -5, 37, -2, 
    -24, 17, -17, 7, -5, -13, 35, -2, 7, 21, 
    -19, 10, 5, -9, 5, -23, 39, -18, 31, -7, 
    -30, 9, -10, 5, 2, 13, 3, -27, -15, -34, 
    43, 1, 2, -17, 12, -40, 1, 6, -32, 30, 
    9, 20, 12, 21, 3, 29, -27, -14, 6, -17, 
    -7, -14, 3, 16, 16, 14, 10, 17, 20, 16, 
    20, -20, 30, 10, 50, 3, 23, -24, 13, 48, 
    -15, -1, -28, 14, -2, -7, -7, 31, 22, 34, 
    -22, -38, 12, 17, -47, 0, -3, -12, -20, -12, 
    21, -4, -14, 42, 26, -34, -11, -22, -23, 38, 
    -21, 15, -17, -16, 21, -22, -35, -52, -50, 28, 
    14, -24, -14, -39, 41, 19, 35, 26, 78, 2, 
    38, 40, 22, -44, -27, -35, 30, 4, 47, 34, 
    17, -50, 70, 79, 61, 11, -8, 18, -19, -32, 
    -10, 79, 51, 10, 58, 21, 62, 67, 26, 14, 
    -20, -42, 52, -45, 21, -73, 3, -74, 26, -101, 
    4, -20, 27, 47, 38, 30, -11, -9, 26, 0, 
    -21, -2, -55, 0, 1, -24, -14, 12, -37, -45, 
    36, -14, -9, 13, -34, -7, 21, -20, -19, 23, 
    26, 30, 42, 0, -35, -23, -27, -40, -17, 11, 
    7, 53, 27, -23, 16, 0, -26, 2, -30, -14, 
    12, 13, -19, 23, -20, -5, 5, 4, -21, 9, 
    -12, -32, 6, -52, -32, -20, 17, 31, -12, 25, 
    1, -19, 31, 25, 68, 32, 21, -8, -32, 10, 
    -41, -10, -42, -32, -14, -20, -35, -49, 2, -40, 
    -1, -28, -64, 13, 9, 47, -53, -10, 0, -21, 
    52, -46, -7, -14, -26, -6, -13, 7, -36, 39, 
    30, 16, -33, -72, -16, -45, -3, 21, -4, 52, 
    45, 47, 10, -25, 11, -3, -9, -19, 69, 40, 
    57, -43, 8, 2, 37, 28, -34, 45, -7, -30, 
    12, 23, -8, -12, 10, 19, -6, 22, 12, -16, 
    5, 11, -22, -20, 27, -10, 8, -15, 20, -36, 
    32, -49, 12, -19, 6, 40, -60, -37, 6, -15, 
    23, 29, -14, -16, -4, 50, -19, 19, -15, 16, 
    -10, -18, 27, -10, 4, 8, 6, 5, -29, 34, 
    6, -17, 12, 30, 52, 15, 11, -40, 25, 34, 
    -59, 34, -65, 47, 4, -29, 6, 34, 26, -43, 
    -28, -18, -12, 32, -22, 33, 5, -25, -23, -4, 
    -43, 39, -24, 45, -5, 12, -3, -13, -18, 0, 
    -20, -44, -9, 62, 12, -47, 5, 43, -24, 19, 
    14, -13, -3, 10, 18, -28, -20, 42, 63, 29, 
    -24, -17, -1, -2, -3, 19, -46, -11, 30, -36, 
    27, -49, 29, -5, 45, 1, -20, -15, 11, -10, 
    -28, -32, -39, 20, 20, 52, 34, 30, 3, 38, 
    -12, -41, 31, -17, 5, 1, 36, 0, -40, 7, 
    -44, -38, 21, 10, 15, 6, 31, 28, 13, -4, 
    38, 3, 55, -4, 41, 66, 25, 12, 5, 55, 
    -44, 5, -22, -2, 49, -12, 4, 5, 16, -15, 
    79, -30, -50, -12, 15, 45, -12, -64, 11, -15, 
    -4, -12, 39, 7, -32, 14, 3, 13, 20, -8, 
    -7, -3, -55, -20, 11, 5, -10, 74, 36, 58, 
    -7, -45, -4, 17, -47, -19, 0, -8, -4, -16, 
    -6, -16, -23, 50, -22, 6, -2, -4, 4, -21, 
    -11, 0, 7, 13, 18, 34, 16, 32, 0, 14, 
    15, 2, 7, 46, 37, -9, -63, -33, -24, 13, 
    -34, 15, 15, 9, -13, -13, 18, -15, 2, 35, 
    43, 26, 4, -56, -1, 5, -2, -4, -15, -20, 
    -45, -3, 14, 76, -19, 36, 28, -6, -29, 15, 
    -40, 11, -24, -15, 37, 29, -12, 18, -4, -33, 
    17, 20, -10, -17, -22, 21, 0, 11, -51, 31, 
    48, 19, -60, -11, -26, -30, 25, 16, -26, 8, 
    -43, 27, 8, -2, -21, -6, 31, -14, -4, 9, 
    70, 20, 25, 35, -38, -51, -16, 9, 27, -21, 
    67, 15, -11, -39, 11, 14, -13, 26, 31, -34, 
    40, 33, 26, -2, -26, 1, -50, -47, 35, -8, 
    -17, 83, 43, 0, 9, 57, -19, -3, -8, -68, 
    -41, -8, -11, -8, 17, 23, -8, 34, -61, 11, 
    26, -13, 53, -7, -44, -28, -18, 18, -55, 60, 
    37, -5, -28, 8, -32, 37, 23, -74, 9, 3, 
    16, 39, -56, 34, 32, -6, 7, -39, -22, 4, 
    -18, -30, -28, 25, -16, -29, 4, 7, 4, -15, 
    64, -7, -2, 62, 18, -6, -24, 7, 4, 8, 
    7, -36, 1, -15, -8, 28, 29, 17, 1, 7, 
    -31, 2, -12, -6, 8, -1, -21, -23, -54, 11, 
    -13, -25, -13, 35, -33, 4, 60, -79, 6, 43, 
    3, -46, -18, -31, 1, -13, -21, 9, -15, -22, 
    -11, 4, -17, -14, -22, 2, -69, 14, 6, -22, 
    36, -28, -32, -48, 23, 34, -36, -5, -4, -22, 
    3, 0, -11, -6, -5, 34, -17, -3, 46, -38, 
    19, -4, -19, -28, 23, 13, 1, 25, 6, 2, 
    14, 54, 6, 39, -25, 36, 8, 21, 25, 33, 
    -7, 6, -31, -26, 7, 11, 5, 11, 19, 10, 
    -19, 2, 9, -8, 8, 29, 0, 1, 33, -19, 
    6, 2, 13, 5, 3, 10, -16, 18, 3, -7, 
    24, 41, 35, -41, -45, 28, -24, -64, -13, 26, 
    23, -38, 8, 11, 1, 18, -26, -29, -5, -13, 
    -5, 5, -17, -26, 13, 37, 3, -11, -27, -57, 
    45, -30, -45, -18, -6, -25, 41, 19, -14, 23, 
    18, 52, -12, -11, 6, -37, -8, -26, -39, -42, 
    13, 16, 40, -16, -19, -23, 2, -2, 12, 33, 
    -13, 20, 14, -31, -11, 30, -23, 14, -6, -2, 
    28, -35, 24, 71, 18, -23, 37, 5, -30, -14, 
    -47, -23, 4, 6, -14, 47, -33, -5, -31, 25, 
    3, -5, -25, -34, 48, -8, 22, -23, -36, 37, 
    -18, 64, 65, -20, -17, -3, 7, 2, 2, -18, 
    -4, 33, 54, 15, 12, 37, -22, 26, 3, 2, 
    -18, 7, -34, -1, -25, 14, -43, 9, 8, 12, 
    -3, -19, 17, -1, 15, -17, 40, -28, 1, 26, 
    23, 66, 33, -34, 101, -19, -14, -11, 9, 21, 
    71, -45, 13, -24, 31, -5, -19, 28, -33, 11, 
    31, -3, -4, -21, -7, -4, 1, -16, -15, -2, 
    -25, -4, 17, -19, 1, -15, -6, -3, 13, 8, 
    19, 13, -6, 35, 3, 5, 7, 23, 18, -53, 
    -10, 35, -39, 26, -21, -8, -6, -16, 29, 46, 
    -28, -22, -19, 11, 18, 5, -19, -18, 16, 12, 
    -35, -24, 9, 9, 24, -10, 28, 16, -34, -5, 
    -12, -35, 48, 6, 42, -1, 3, -28, 16, 11, 
    2, -2, 10, -21, -22, 7, 16, 5, -15, 24, 
    65, -40, 26, 22, 17, -13, -7, -35, -6, 38, 
    12, -20, 35, -23, 4, 2, 10, 13, 13, -45, 
    -40, -36, 27, 19, 2, 12, 8, -39, -18, -37, 
    -6, 20, -3, 44, -75, 47, -45, 43, -43, 43, 
    -15, 28, 53, -10, -22, -17, -43, -2, 26, -44, 
    19, 25, 2, 14, 41, -14, 32, -1, -10, 26, 
    12, -44, -6, -24, 46, -42, -7, 25, -34, 19, 
    8, -2, -7, -11, 17, 5, 25, -6, 20, -31, 
    -24, -43, 43, 1, -16, -1, 32, -41, 52, -48, 
    -34, 3, 37, -8, 49, -29, -6, -6, -15, -43, 
    -38, 30, -7, -30, 2, -51, 9, 8, -11, 18, 
    1, -9, 27, -24, 13, 23, -24, 0, 7, -22, 
    16, -38, 5, -18, -16, 32, -24, -28, -4, -6, 
    -10, 45, -15, 17, -12, 43, 7, -15, -17, 6, 
    1, 19, 0, -33, -9, 16, -13, -43, 18, 30, 
    27, -22, 48, -3, 26, 24, -76, 76, -23, 3, 
    -40, 13, -51, 30, 41, -22, -2, 8, -11, 18, 
    22, -36, -8, -38, 17, 39, -7, 24, -70, -40, 
    2, 65, -21, -37, 11, -7, 18, 1, 34, -45, 
    1, 22, 19, -15, 8, -26, 53, -18, 1, -12, 
    39, -41, -26, -20, 5, 18, -9, -23, 1, 15, 
    -60, -38, 8, -16, 27, -38, 20, 4, -9, 20, 
    -2, 26, -14, 7, -12, 23, 32, 12, 45, -8, 
    -13, 2, 4, -28, -1, 7, 29, -10, 72, 8, 
    1, 14, -9, 2, 17, -24, -34, -12, -28, 50, 
    -26, -25, 28, 18, -4, -16, -2, 5, -24, 30, 
    -4, 27, -12, 38, 23, -7, -3, -19, -25, 9, 
    5, -1, 34, 4, -62, -40, -20, 37, -30, -26, 
    37, 1, 45, 5, 5, 18, 26, 44, 8, 5, 
    10, -20, -29, -45, 53, 24, 70, 2, 33, -4, 
    39, 72, -27, 78, 6, 29, -18, -16, -47, 11, 
    -5, 1, 19, 35, 8, 35, 6, 5, 8, -12, 
    17, 9, -4, -15, -10, 15, -63, -16, 26, 7, 
    2, -28, 31, 18, -8, 5, -11, 0, -45, -5, 
    -17, 16, -41, 6, -33, -30, -48, -25, -31, -60, 
    14, 19, 4, 55, -8, -3, -43, -4, -8, 24, 
    50, 12, 5, -57, 36, 4, -10, 30, -4, 22, 
    -3, 37, -23, 1, 3, 17, -13, 60, -23, -60, 
    0, -32, -49, 35, -79, -49, 53, 56, -33, 30, 
    -17, 4, -71, 4, -6, 68, 0, 50, -69, 2, 
    23, -11, -16, -46, -37, -4, -56, -25, -11, -45, 
    34, -6, -18, 2, -37, 10, -51, 16, 26, -28, 
    111, -32, -14, 35, 37, 10, -21, -54, 32, 4, 
    34, 16, 33, -54, 14, 19, -7, 7, -15, -38, 
    -25, -19, -24, 8, 1, -1, -42, -29, -27, -16, 
    -19, 32, 2, 15, 1, 18, 17, -21, -10, 9, 
    -27, -17, 0, -36, -26, -1, -11, 9, 35, -34, 
    32, -34, 27, 32, -15, 0, 31, -7, -12, -28, 
    -41, -66, 7, 50, -18, 10, -38, 25, -63, -48, 
    -31, 61, -16, -10, -5, -29, 24, -32, -18, 13, 
    8, -11, -26, 7, 10, -12, -28, -17, 15, -9, 
    -14, 23, 9, -5, 19, 9, -25, 11, 2, -25, 
    -40, 30, -25, -18, 18, 16, 37, 7, -13, 28, 
    27, -55, 0, 66, -39, -69, -27, 39, -12, 22, 
    31, 3, -19, -39, -82, 41, -62, -29, -43, -19, 
    -56, 29, 26, 34, 38, 21, -9, -43, 25, -47, 
    -39, 15, 24, -10, -23, 6, 28, -3, 24, -56, 
    -23, -24, -6, -17, 17, -15, -9, 2, 3, -32, 
    8, -4, -11, 43, -18, -34, -13, 16, -20, 10, 
    -2, 17, -23, 3, 55, 12, 23, 26, 16, -16, 
    -23, -21, -1, 6, -36, 22, -10, -22, 53, 7, 
    -6, -8, 22, 7, 3, 35, 13, -6, -32, 5, 
    4, -32, 28, 5, -49, -4, 47, 25, -10, -63, 
    9, -26, 16, 18, -41, -67, -18, 30, -21, -5, 
    38, -17, -46, 24, -12, -69, 33, 6, 23, -7, 
    6, -6, -3, -49, 23, 1, -64, -11, -70, -58, 
    -14, -26, -8, -10, -15, -1, 14, -20, 19, -27, 
    -4, 45, 40, -7, 9, 36, 18, 2, 26, -15, 
    8, 39, -1, -4, -14, 63, -24, 26, 33, -30, 
    -16, 14, 9, -19, 16, -8, -26, 26, 73, 29, 
    33, 8, 34, 14, -16, 10, 17, -8, -6, 3, 
    38, -14, 24, -8, 25, 6, -15, 14, -40, -4, 
    32, -7, -48, 19, 22, -30, 38, 72, 4, -9, 
    -39, 24, -12, 1, 17, -29, 11, -50, 12, 12, 
    31, 41, 5, -30, 59, -5, 41, 10, -17, 20, 
    -17, -37, 50, -17, -11, -9, 7, -15, 10, 21, 
    8, 11, 1, -1, -9, 11, -31, -19, 28, 15, 
    13, -22, -20, -27, 6, 8, 4, -28, -47, 3, 
    18, -14, 45, 14, -49, 13, -56, 50, 13, 35, 
    19, -4, -52, 1, 12, 6, 15, -13, -17, 7, 
    15, -29, 23, -13, 25, 33, 9, -36, 10, 31, 
    7, 69, -50, 54, -30, -42, 37, -25, -21, 33, 
    21, -45, 7, 42, -10, 24, -24, -1, 11, -20, 
    -22, -16, 33, -15, 20, 65, 34, -8, -4, -1, 
    17, 11, -13, -35, -26, -58, -43, -5, 47, -1, 
    -37, -32, 7, 60, -10, -4, -7, 24, 25, -22, 
    43, -48, -10, 49, -32, 11, -48, 14, 8, 33, 
    -20, -1, 58, 65, -31, 35, -47, 16, 5, -75, 
    40, 3, 25, 44, -4, 6, 11, -3, 23, -44, 
    -3, -19, -20, 20, 51, -16, -32, 46, -23, 14, 
    22, -75, -20, 2, -29, -25, -36, -14, 42, -101, 
    36, -21, -45, 22, -32, 35, 63, -17, -4, 12, 
    -10, 29, -8, 11, 8, 0, -2, -10, 38, -45, 
    -13, 26, -1, 50, 20, 11, 31, 8, 11, -44, 
    15, 9, -20, -13, 2, -5, 20, 34, 12, -21, 
    -10, -26, 25, 26, 15, -4, -39, -7, 32, -32, 
    13, 32, 17, -2, 44, 3, 9, 9, 15, 17, 
    -49, -31, 1, -15, -16, 32, -21, 27, -33, 14, 
    -26, -6, 22, 1, 5, -7, 46, 14, -17, -3, 
    44, 12, 22, -13, 9, 0, 18, -3, 18, 24, 
    3, -36, 16, -29, 14, -3, 56, 45, -31, 18, 
    9, -2, -21, -13, -33, -12, 4, -25, -19, -26, 
    8, -29, -19, -15, -6, 12, -39, -1, 8, 3, 
    -33, 28, 14, 18, -5, 13, -23, -17, 8, -36, 
    46, -12, -10, -38, 15, 1, -21, -13, -25, 0, 
    31, 16, 6, 3, 7, -26, 20, 14, 4, 8, 
    -23, 17, 60, 13, -7, 12, -7, 16, -2, 10, 
    -6, -9, -11, -3, 57, 34, 38, -27, 10, -9, 
    -7, 54, -30, 1, -63, 19, -12, -17, 6, 8, 
    -6, 32, 13, 7, -33, -17, -28, -32, 26, -18, 
    -30, -2, -48, 28, -25, -45, -43, -53, -3, 39, 
    18, 33, 13, -12, 27, 41, 20, 21, -6, -11, 
    -39, -50, 22, -8, 33, -25, 10, -58, 34, -3, 
    -13, -25, 6, 86, -2, 43, 12, -34, 4, -16, 
    37, 11, -3, 21, 21, -7, -4, 19, 42, -31, 
    23, 37, -28, 36, 6, -14, 4, -76, 36, -6, 
    6, -43, -28, 78, 54, -17, 28, 10, 27, 23, 
    -55, -19, 25, 1, -6, -35, 28, -22, 30, 54, 
    32, -1, -9, -17, -20, -24, 36, 11, -11, 27, 
    -29, -8, 34, -11, -16, 30, -19, 27, -17, -37, 
    11, 21, -1, 15, 22, -10, 12, 9, 16, -16, 
    -31, 21, -15, 5, 2, -27, -24, -7, -9, -10, 
    -25, 0, -39, -54, -10, -18, -38, 34, 6, 5, 
    15, 2, 31, 14, 3, -16, -21, 1, -16, 18, 
    -15, -30, 27, -23, -6, -14, 49, 2, 26, 22, 
    -31, 8, 29, -25, 67, -62, 24, 50, 48, 19, 
    29, -21, 5, 55, -16, 11, -7, -8, -24, 42, 
    -41, 29, -6, -39, 14, 13, -9, -48, 10, 4, 
    17, -29, -46, -15, 6, 3, 0, 41, 48, -11, 
    11, -7, 24, -18, 17, 37, -5, 22, 44, -17, 
    0, -67, -45, 0, -17, -29, -38, -64, -31, -30, 
    -14, -7, -59, -57, 26, 80, -84, 28, -51, 5, 
    -39, 2, 8, 53, -8, -7, -15, -11, -47, -58, 
    2, -45, -14, 82, -65, 57, -10, -48, 13, 63, 
    15, 17, 9, 27, 25, 9, 21, -33, -24, -43, 
    16, -33, 52, -11, 30, 24, 15, 7, 30, 7, 
    -16, 41, -5, 19, -2, -5, -31, -21, 6, -14, 
    -16, -15, -12, -2, -10, -12, 19, -34, 56, 76, 
    -53, 26, -31, 11, -8, -35, -51, -5, -20, 60, 
    -57, -4, 6, 28, 11, -15, 45, -12, -13, -63, 
    33, 15, -9, 38, -7, 14, -10, 8, -14, -3, 
    27, -23, 4, 48, 41, 25, -34, -32, -9, 31, 
    -29, 26, 37, -45, -5, -35, -64, -74, 36, 53, 
    -2, 5, 0, -30, 19, 23, 27, 33, 44, 42, 
    -25, -20, -5, -35, 30, -98, 18, 2, 55, -15, 
    -8, -58, 52, 81, 30, 30, 14, 55, -41, -18, 
    12, 43, 17, -12, 32, 7, -6, 56, 12, 41, 
    -33, -15, 21, 36, 17, -4, 42, -79, -2, 4, 
    6, 32, 24, -25, 29, 21, 36, -13, 22, -9, 
    -58, -31, 38, 5, 18, 8, -30, 0, 11, -18, 
    8, -6, -29, 31, 7, 9, -21, -6, -11, -49, 
    40, 25, 45, 22, 60, -16, 25, -2, 23, 32, 
    -30, 54, 44, 1, 29, -19, -59, 35, 66, 10, 
    -19, -46, -26, 21, 7, -37, 28, 28, -52, 24, 
    -14, -4, 2, 27, -1, -39, -35, -1, 13, -56, 
    11, 20, -6, 12, 11, 4, -13, -20, 62, 7, 
    -4, 40, -31, -42, -4, 14, -4, -3, -25, -17, 
    15, -15, -10, -2, 4, 15, -7, 1, -29, -19, 
    -5, -3, 10, 36, -29, -31, 8, -33, -41, 13, 
    -8, 22, 19, -36, 36, 22, -3, -28, 14, -49, 
    35, 26, 17, -11, 30, -18, 18, 27, 21, -17, 
    6, -51, -4, -53, -14, 3, -55, 14, -6, 24, 
    -23, -25, 74, 46, -4, -8, -3, 70, 26, -30, 
    -3, 16, 17, -50, -5, -17, -12, 5, 34, -44, 
    -31, 4, -35, 8, -5, 39, -3, 12, 39, -50, 
    -5, 61, 15, 45, -4, 3, 9, 20, 21, 24, 
    -14, 5, 0, 31, -5, -24, 9, -20, -72, 11, 
    -20, -34, 46, 13, 9, -9, 8, -17, -1, -21, 
    7, -45, -27, -4, -10, 6, 5, -4, 0, -31, 
    29, -6, -25, -7, -17, 8, 13, 74, -50, -2, 
    -5, 18, -33, 41, -42, -29, 47, -7, 9, 39, 
    18, -35, -11, 23, 17, -6, 31, -37, -3, 21, 
    24, 10, -19, -5, 7, 58, 22, -17, 12, 19, 
    1, 3, 25, 3, -13, 23, -29, -11, -29, -13, 
    15, 12, 11, 23, -22, 8, -12, 0, -34, 27, 
    44, -3, -43, 18, 28, 22, 72, -11, 8, -9, 
    8, -41, -37, -25, -3, -50, -41, -26, 14, 36, 
    2, 12, -61, 9, 39, 29, -10, 15, -1, 35, 
    27, 4, -4, -34, -23, -27, -14, -14, 44, -28, 
    -19, 13, -30, -36, 9, 7, 17, 8, 22, -25, 
    14, 76, 27, -27, 7, 4, -27, -64, 25, 22, 
    21, -50, -15, 41, -39, -42, 1, -25, -14, -14, 
    -22, 26, 22, -18, -2, 23, -61, -35, 0, -13, 
    17, -9, 4, -31, -81, -9, 22, -66, 71, -78, 
    -77, 58, -45, 13, 75, 6, 40, 42, 1, 13, 
    -12, -9, 21, -15, 8, 19, 32, -15, 8, 62, 
    -26, 36, 30, -43, 39, 16, 24, -3, -58, 18, 
    -27, -31, 43, 4, 19, 14, 12, 21, -8, -18, 
    60, 15, -59, 18, -35, 32, -42, 12, -39, -36, 
    21, -2, 16, 43, -16, -12, 2, -50, -18, -65, 
    72, 0, -9, 8, 9, 17, 11, -5, 1, -49, 
    -30, 1, -1, -24, 44, 5, -68, 74, 27, -28, 
    26, -30, -29, -21, 6, -1, 20, -12, 1, -22, 
    9, -44, 26, -25, -7, 48, 52, 19, -51, 86, 
    25, 18, 37, 45, -53, 42, -23, 22, 33, -34, 
    -3, 45, 47, -22, -16, -18, -37, 59, -3, -42, 
    5, 43, 36, -9, -50, 24, -19, 5, 62, -43, 
    -26, 18, -5, -45, 33, 29, 2, -5, 0, 31, 
    -36, -4, -10, 47, 11, 10, 15, -8, 6, -3, 
    54, -18, -20, -4, -34, -27, -19, 53, -54, 54, 
    47, -14, 10, 35, 1, -8, 10, 3, -44, 34, 
    32, -5, 46, -36, 14, -4, -19, 5, 30, 3, 
    -23, 38, -4, -89, 6, 31, 39, 9, -28, 35, 
    -21, -1, 47, -51, 20, 25, -10, 24, 24, 17, 
    -48, -32, 8, -42, -7, -35, -3, 6, 9, -20, 
    -40, -7, 28, 28, -8, -4, 20, 28, 14, -20, 
    22, -29, -8, 2, -30, -18, -53, -44, 25, 65, 
    12, 17, 43, 22, 13, 16, 49, 59, -24, -17, 
    2, 16, -19, -10, 13, -18, -26, -26, -3, 39, 
    -5, 42, 37, -17, 29, -33, 20, -13, -26, -19, 
    -19, 0, -7, 7, -39, 29, 49, 37, -14, 4, 
    17, 6, -3, -8, -9, 7, 17, 30, 19, 18, 
    11, -22, -2, 16, 20, 24, -9, 3, 32, 19, 
    21, -43, -33, 18, -21, 6, 7, -46, 23, 50, 
    -30, -16, -42, 56, 36, 32, -49, -31, 5, -21, 
    21, 53, 20, 38, 55, -30, -8, -16, -12, 22, 
    11, 55, 58, -24, 23, -53, -32, -24, -14, -13, 
    -12, -43, 8, 4, -17, 30, 13, 18, 52, 56, 
    -1, -28, -62, -3, -6, 12, 24, -6, -22, 24, 
    -14, -8, 17, 15, 8, 29, 35, -3, -34, 5, 
    -49, 49, -17, -38, -41, 18, -13, 25, -55, -44, 
    -12, 33, -34, 18, 17, -10, -10, -10, 3, -25, 
    19, 6, -42, -11, -22, -18, -14, -9, 4, -24, 
    -37, -44, 30, -28, 8, 42, 6, 14, -12, 55, 
    33, -14, 29, 5, 46, -4, 4, 5, 27, 4, 
    -25, 2, 44, 16, -6, 27, -5, 33, -17, -35, 
    39, 6, 40, -31, 12, 29, -2, 10, 10, -5, 
    -36, -1, -11, 15, -11, -26, -14, -13, -18, -3, 
    22, 6, -4, -47, 28, 31, 34, 12, -10, 12, 
    9, -37, -8, 30, 3, 33, -25, 2, 29, -9, 
    -15, 6, 60, 31, 20, 31, -44, -62, 22, -54, 
    78, -16, 45, 46, 103, -51, 40, -6, 82, 26, 
    -31, 53, 17, 24, -57, 5, 0, 52, 18, 15, 
    24, -63, 6, 15, -19, -16, 25, -18, 51, 22, 
    -23, 30, -23, 4, -5, 15, -13, -7, -20, 9, 
    -15, -44, 32, -3, -58, -36, 5, 34, -29, 7, 
    16, -9, 35, 10, 0, -3, 30, 36, 25, 33, 
    -13, -10, 79, -65, 21, -38, 37, 21, 26, -75, 
    28, -21, 31, 31, -26, 34, 8, -10, -28, 41, 
    -41, 17, -24, 53, -24, 12, 11, 2, -21, 21, 
    35, 23, 33, -30, 4, -20, -14, 1, -23, -40, 
    -25, 28, 32, -15, 16, 11, 16, 35, -23, 4, 
    56, 19, -20, -1, 11, -45, 16, 59, 26, 36, 
    20, 56, 72, 3, 15, -33, 21, -6, 14, -19, 
    57, 52, 52, -15, 24, 53, 34, 45, 7, 36, 
    39, 26, -6, -9, 23, -1, -12, -18, -9, -7, 
    -21, -65, 22, 13, -1, 59, 29, 17, -46, 2, 
    29, 51, -16, 12, 41, 23, -34, 21, -19, 4, 
    -18, -49, 28, -7, 12, 0, -11, 11, 6, 6, 
    -35, 30, 46, 12, -41, -10, 34, -11, -13, 7, 
    12, 24, -1, 11, -36, -24, -12, 12, 3, 24, 
    -4, -34, 17, -50, -21, -24, 20, 3, -11, -4, 
    -9, 19, 17, 66, -17, -21, 9, 42, 15, 12, 
    16, -35, 49, -17, 41, -10, 30, 7, -25, -40, 
    11, 28, 13, 4, -16, -13, 3, -35, 25, -47, 
    22, -38, 37, -18, 10, -44, 29, 16, -13, -4, 
    -12, 35, -24, 49, 15, 17, 50, -16, 18, -25, 
    27, 35, 36, -39, -5, 21, -14, 0, -13, -4, 
    13, -18, 7, 14, -18, -5, 60, 19, -6, 26, 
    5, -13, 61, -1, 44, 6, -5, -1, 32, 7, 
    38, 29, -34, -39, 28, 54, 23, 62, 51, -49, 
    -47, 33, 16, 11, 35, -11, 39, 2, 29, 10, 
    24, -28, 3, -27, 25, -14, 8, -23, -16, -8, 
    -18, -30, 13, -7, -6, 32, 3, 11, 13, -10, 
    34, 57, -28, -3, 49, 1, 68, 21, -36, 3, 
    4, 8, 34, -44, 21, 49, -7, -70, -13, 34, 
    7, 3, 27, 29, 11, 41, 57, 33, -46, 3, 
    -18, -7, 57, 12, 9, -29, 46, 8, -23, 8, 
    -16, -7, -18, -50, -17, 16, -35, -22, 7, -7, 
    -4, -11, -3, -34, -31, 41, 20, -35, 18, -20, 
    23, -30, 85, 21, -48, -5, -20, -13, -12, 16, 
    -26, -23, -15, -33, -13, -36, -6, 20, -3, -10, 
    5, 56, 17, -3, 35, -62, 38, 76, -22, -44, 
    7, -10, 33, 10, 49, -5, -27, -11, -8, 42, 
    33, 16, -11, -5, -15, -34, -3, 43, 25, -7, 
    6, 6, 57, -16, 0, 27, -23, 25, 40, -26, 
    -4, -21, -12, -17, -6, 9, -23, -49, 46, 19, 
    -29, -18, 30, -14, -30, -41, 16, 3, -21, 24, 
    25, -5, -2, 2, 17, -21, -48, 11, 11, 9, 
    -34, -7, 21, 56, 9, -14, -27, 44, -18, 23, 
    31, -19, -33, -10, 3, 22, 1, -60, -40, -7, 
    43, 51, 37, -42, -4, -6, -17, -5, 26, -12, 
    -22, 41, -30, -8, 40, 82, 23, 66, -47, 40, 
    -12, 8, 61, -34, 2, 7, 15, 54, 34, 19, 
    22, -12, -13, 31, -49, -6, 10, -38, -16, -25, 
    -11, -18, 8, -12, 46, 23, 4, -51, -2, -9, 
    15, 8, 16, 12, -25, 6, -28, 45, -1, -49, 
    8, -48, -69, 75, 10, 25, 36, -43, -24, 53, 
    -42, 4, 65, 26, -30, -16, 10, -79, 23, 66, 
    -41, 27, -60, 95, 12, 35, 71, 1, -53, 16, 
    42, -22, 56, -43, -67, 24, -26, 16, 3, -71, 
    22, -25, 56, 4, -11, -4, -39, 49, -25, -17, 
    5, -1, -13, -13, -35, 28, -20, -10, 40, -8, 
